digraph Tree {
node [shape=box] ;
0 [label="Political_interest_Total_Score <= 0.018\ngini = 0.871\nsamples = 8500\nvalue = [481, 1714, 452, 332, 824, 309, 283, 462, 448, 2037\n365, 394, 399]\nclass = Turquoises"] ;
1 [label="Number_of_differnt_parties_voted_for <= -0.106\ngini = 0.816\nsamples = 5607\nvalue = [71, 95, 452, 332, 821, 290, 280, 25, 448, 2037, 31\n387, 338]\nclass = Turquoises"] ;
0 -> 1 [labeldistance=2.5, labelangle=45, headlabel="True"] ;
2 [label="Overall_happiness_score <= 0.091\ngini = 0.853\nsamples = 3134\nvalue = [18, 18, 102, 330, 821, 252, 249, 7, 404, 468, 7\n365, 93]\nclass = Khakis"] ;
1 -> 2 ;
3 [label="Avg_size_per_room <= 0.146\ngini = 0.78\nsamples = 2142\nvalue = [10, 12, 1, 330, 821, 142, 198, 3, 2, 318, 5, 254\n46]\nclass = Khakis"] ;
2 -> 3 ;
4 [label="Weighted_education_rank <= -0.434\ngini = 0.71\nsamples = 1713\nvalue = [5, 12, 1, 115, 814, 110, 66, 2, 2, 310, 4, 249\n23]\nclass = Khakis"] ;
3 -> 4 ;
5 [label="Overall_happiness_score <= -0.258\ngini = 0.435\nsamples = 626\nvalue = [1, 7, 1, 0, 464, 26, 58, 0, 0, 19, 3, 42, 5]\nclass = Khakis"] ;
4 -> 5 ;
6 [label="Avg_Satisfaction_with_previous_vote <= 0.315\ngini = 0.261\nsamples = 534\nvalue = [1, 6, 0, 0, 457, 17, 39, 0, 0, 7, 1, 1, 5]\nclass = Khakis"] ;
5 -> 6 ;
7 [label="Weighted_education_rank <= -0.714\ngini = 0.219\nsamples = 519\nvalue = [1, 2, 0, 0, 457, 7, 39, 0, 0, 7, 0, 1, 5]\nclass = Khakis"] ;
6 -> 7 ;
8 [label="Avg_size_per_room <= -0.455\ngini = 0.691\nsamples = 32\nvalue = [0, 1, 0, 0, 11, 4, 13, 0, 0, 0, 0, 0, 3]\nclass = Pinks"] ;
7 -> 8 ;
9 [label="Weighted_education_rank <= -0.799\ngini = 0.539\nsamples = 16\nvalue = [0, 0, 0, 0, 10, 0, 3, 0, 0, 0, 0, 0, 3]\nclass = Khakis"] ;
8 -> 9 ;
10 [label="gini = 0.5\nsamples = 4\nvalue = [0, 0, 0, 0, 0, 0, 2, 0, 0, 0, 0, 0, 2]\nclass = Pinks"] ;
9 -> 10 ;
11 [label="Weighted_education_rank <= -0.716\ngini = 0.292\nsamples = 12\nvalue = [0, 0, 0, 0, 10, 0, 1, 0, 0, 0, 0, 0, 1]\nclass = Khakis"] ;
9 -> 11 ;
12 [label="Avg_size_per_room <= -0.514\ngini = 0.165\nsamples = 11\nvalue = [0, 0, 0, 0, 10, 0, 1, 0, 0, 0, 0, 0, 0]\nclass = Khakis"] ;
11 -> 12 ;
13 [label="gini = 0.0\nsamples = 9\nvalue = [0, 0, 0, 0, 9, 0, 0, 0, 0, 0, 0, 0, 0]\nclass = Khakis"] ;
12 -> 13 ;
14 [label="gini = 0.5\nsamples = 2\nvalue = [0, 0, 0, 0, 1, 0, 1, 0, 0, 0, 0, 0, 0]\nclass = Khakis"] ;
12 -> 14 ;
15 [label="gini = 0.0\nsamples = 1\nvalue = [0, 0, 0, 0, 0, 0, 0, 0, 0, 0, 0, 0, 1]\nclass = Yellows"] ;
11 -> 15 ;
16 [label="Avg_size_per_room <= -0.137\ngini = 0.539\nsamples = 16\nvalue = [0, 1, 0, 0, 1, 4, 10, 0, 0, 0, 0, 0, 0]\nclass = Pinks"] ;
8 -> 16 ;
17 [label="Number_of_differnt_parties_voted_for <= -0.48\ngini = 0.165\nsamples = 11\nvalue = [0, 0, 0, 0, 1, 0, 10, 0, 0, 0, 0, 0, 0]\nclass = Pinks"] ;
16 -> 17 ;
18 [label="gini = 0.0\nsamples = 10\nvalue = [0, 0, 0, 0, 0, 0, 10, 0, 0, 0, 0, 0, 0]\nclass = Pinks"] ;
17 -> 18 ;
19 [label="gini = 0.0\nsamples = 1\nvalue = [0, 0, 0, 0, 1, 0, 0, 0, 0, 0, 0, 0, 0]\nclass = Khakis"] ;
17 -> 19 ;
20 [label="gini = 0.32\nsamples = 5\nvalue = [0, 1, 0, 0, 0, 4, 0, 0, 0, 0, 0, 0, 0]\nclass = Oranges"] ;
16 -> 20 ;
21 [label="Avg_size_per_room <= -0.619\ngini = 0.158\nsamples = 487\nvalue = [1, 1, 0, 0, 446, 3, 26, 0, 0, 7, 0, 1, 2]\nclass = Khakis"] ;
7 -> 21 ;
22 [label="Most_Important_Issue_Education <= 0.5\ngini = 0.78\nsamples = 10\nvalue = [1, 0, 0, 0, 3, 2, 2, 0, 0, 0, 0, 0, 2]\nclass = Khakis"] ;
21 -> 22 ;
23 [label="Weighted_education_rank <= -0.617\ngini = 0.735\nsamples = 7\nvalue = [1, 0, 0, 0, 0, 2, 2, 0, 0, 0, 0, 0, 2]\nclass = Oranges"] ;
22 -> 23 ;
24 [label="gini = 0.0\nsamples = 2\nvalue = [0, 0, 0, 0, 0, 0, 0, 0, 0, 0, 0, 0, 2]\nclass = Yellows"] ;
23 -> 24 ;
25 [label="gini = 0.64\nsamples = 5\nvalue = [1, 0, 0, 0, 0, 2, 2, 0, 0, 0, 0, 0, 0]\nclass = Oranges"] ;
23 -> 25 ;
26 [label="gini = 0.0\nsamples = 3\nvalue = [0, 0, 0, 0, 3, 0, 0, 0, 0, 0, 0, 0, 0]\nclass = Khakis"] ;
22 -> 26 ;
27 [label="Avg_size_per_room <= -0.226\ngini = 0.135\nsamples = 477\nvalue = [0, 1, 0, 0, 443, 1, 24, 0, 0, 7, 0, 1, 0]\nclass = Khakis"] ;
21 -> 27 ;
28 [label="Avg_Satisfaction_with_previous_vote <= -1.786\ngini = 0.107\nsamples = 461\nvalue = [0, 0, 0, 0, 435, 0, 21, 0, 0, 4, 0, 1, 0]\nclass = Khakis"] ;
27 -> 28 ;
29 [label="gini = 0.0\nsamples = 2\nvalue = [0, 0, 0, 0, 0, 0, 2, 0, 0, 0, 0, 0, 0]\nclass = Pinks"] ;
28 -> 29 ;
30 [label="Weighted_education_rank <= -0.631\ngini = 0.1\nsamples = 459\nvalue = [0, 0, 0, 0, 435, 0, 19, 0, 0, 4, 0, 1, 0]\nclass = Khakis"] ;
28 -> 30 ;
31 [label="Overall_happiness_score <= -0.42\ngini = 0.256\nsamples = 94\nvalue = [0, 0, 0, 0, 80, 0, 13, 0, 0, 0, 0, 1, 0]\nclass = Khakis"] ;
30 -> 31 ;
32 [label="Avg_size_per_room <= -0.391\ngini = 0.136\nsamples = 82\nvalue = [0, 0, 0, 0, 76, 0, 6, 0, 0, 0, 0, 0, 0]\nclass = Khakis"] ;
31 -> 32 ;
33 [label="Weighted_education_rank <= -0.632\ngini = 0.053\nsamples = 73\nvalue = [0, 0, 0, 0, 71, 0, 2, 0, 0, 0, 0, 0, 0]\nclass = Khakis"] ;
32 -> 33 ;
34 [label="Number_of_differnt_parties_voted_for <= -0.48\ngini = 0.027\nsamples = 72\nvalue = [0, 0, 0, 0, 71, 0, 1, 0, 0, 0, 0, 0, 0]\nclass = Khakis"] ;
33 -> 34 ;
35 [label="gini = 0.0\nsamples = 61\nvalue = [0, 0, 0, 0, 61, 0, 0, 0, 0, 0, 0, 0, 0]\nclass = Khakis"] ;
34 -> 35 ;
36 [label="Most_Important_Issue_Education <= 0.5\ngini = 0.165\nsamples = 11\nvalue = [0, 0, 0, 0, 10, 0, 1, 0, 0, 0, 0, 0, 0]\nclass = Khakis"] ;
34 -> 36 ;
37 [label="gini = 0.0\nsamples = 1\nvalue = [0, 0, 0, 0, 0, 0, 1, 0, 0, 0, 0, 0, 0]\nclass = Pinks"] ;
36 -> 37 ;
38 [label="gini = 0.0\nsamples = 10\nvalue = [0, 0, 0, 0, 10, 0, 0, 0, 0, 0, 0, 0, 0]\nclass = Khakis"] ;
36 -> 38 ;
39 [label="gini = 0.0\nsamples = 1\nvalue = [0, 0, 0, 0, 0, 0, 1, 0, 0, 0, 0, 0, 0]\nclass = Pinks"] ;
33 -> 39 ;
40 [label="Most_Important_Issue_Social <= 0.5\ngini = 0.494\nsamples = 9\nvalue = [0, 0, 0, 0, 5, 0, 4, 0, 0, 0, 0, 0, 0]\nclass = Khakis"] ;
32 -> 40 ;
41 [label="Avg_size_per_room <= -0.329\ngini = 0.278\nsamples = 6\nvalue = [0, 0, 0, 0, 5, 0, 1, 0, 0, 0, 0, 0, 0]\nclass = Khakis"] ;
40 -> 41 ;
42 [label="gini = 0.0\nsamples = 5\nvalue = [0, 0, 0, 0, 5, 0, 0, 0, 0, 0, 0, 0, 0]\nclass = Khakis"] ;
41 -> 42 ;
43 [label="gini = 0.0\nsamples = 1\nvalue = [0, 0, 0, 0, 0, 0, 1, 0, 0, 0, 0, 0, 0]\nclass = Pinks"] ;
41 -> 43 ;
44 [label="gini = 0.0\nsamples = 3\nvalue = [0, 0, 0, 0, 0, 0, 3, 0, 0, 0, 0, 0, 0]\nclass = Pinks"] ;
40 -> 44 ;
45 [label="Most_Important_Issue_Healthcare <= 0.5\ngini = 0.542\nsamples = 12\nvalue = [0, 0, 0, 0, 4, 0, 7, 0, 0, 0, 0, 1, 0]\nclass = Pinks"] ;
31 -> 45 ;
46 [label="Most_Important_Issue_Education <= 0.5\ngini = 0.46\nsamples = 10\nvalue = [0, 0, 0, 0, 2, 0, 7, 0, 0, 0, 0, 1, 0]\nclass = Pinks"] ;
45 -> 46 ;
47 [label="Avg_size_per_room <= -0.431\ngini = 0.219\nsamples = 8\nvalue = [0, 0, 0, 0, 1, 0, 7, 0, 0, 0, 0, 0, 0]\nclass = Pinks"] ;
46 -> 47 ;
48 [label="gini = 0.444\nsamples = 3\nvalue = [0, 0, 0, 0, 1, 0, 2, 0, 0, 0, 0, 0, 0]\nclass = Pinks"] ;
47 -> 48 ;
49 [label="gini = 0.0\nsamples = 5\nvalue = [0, 0, 0, 0, 0, 0, 5, 0, 0, 0, 0, 0, 0]\nclass = Pinks"] ;
47 -> 49 ;
50 [label="gini = 0.5\nsamples = 2\nvalue = [0, 0, 0, 0, 1, 0, 0, 0, 0, 0, 0, 1, 0]\nclass = Khakis"] ;
46 -> 50 ;
51 [label="gini = 0.0\nsamples = 2\nvalue = [0, 0, 0, 0, 2, 0, 0, 0, 0, 0, 0, 0, 0]\nclass = Khakis"] ;
45 -> 51 ;
52 [label="Number_of_differnt_parties_voted_for <= -0.48\ngini = 0.054\nsamples = 365\nvalue = [0, 0, 0, 0, 355, 0, 6, 0, 0, 4, 0, 0, 0]\nclass = Khakis"] ;
30 -> 52 ;
53 [label="Overall_happiness_score <= -0.62\ngini = 0.03\nsamples = 327\nvalue = [0, 0, 0, 0, 322, 0, 4, 0, 0, 1, 0, 0, 0]\nclass = Khakis"] ;
52 -> 53 ;
54 [label="gini = 0.375\nsamples = 4\nvalue = [0, 0, 0, 0, 3, 0, 1, 0, 0, 0, 0, 0, 0]\nclass = Khakis"] ;
53 -> 54 ;
55 [label="Overall_happiness_score <= -0.409\ngini = 0.025\nsamples = 323\nvalue = [0, 0, 0, 0, 319, 0, 3, 0, 0, 1, 0, 0, 0]\nclass = Khakis"] ;
53 -> 55 ;
56 [label="gini = 0.0\nsamples = 227\nvalue = [0, 0, 0, 0, 227, 0, 0, 0, 0, 0, 0, 0, 0]\nclass = Khakis"] ;
55 -> 56 ;
57 [label="Overall_happiness_score <= -0.409\ngini = 0.081\nsamples = 96\nvalue = [0, 0, 0, 0, 92, 0, 3, 0, 0, 1, 0, 0, 0]\nclass = Khakis"] ;
55 -> 57 ;
58 [label="gini = 0.5\nsamples = 2\nvalue = [0, 0, 0, 0, 0, 0, 1, 0, 0, 1, 0, 0, 0]\nclass = Pinks"] ;
57 -> 58 ;
59 [label="Weighted_education_rank <= -0.575\ngini = 0.042\nsamples = 94\nvalue = [0, 0, 0, 0, 92, 0, 2, 0, 0, 0, 0, 0, 0]\nclass = Khakis"] ;
57 -> 59 ;
60 [label="Avg_size_per_room <= -0.381\ngini = 0.32\nsamples = 10\nvalue = [0, 0, 0, 0, 8, 0, 2, 0, 0, 0, 0, 0, 0]\nclass = Khakis"] ;
59 -> 60 ;
61 [label="gini = 0.0\nsamples = 7\nvalue = [0, 0, 0, 0, 7, 0, 0, 0, 0, 0, 0, 0, 0]\nclass = Khakis"] ;
60 -> 61 ;
62 [label="gini = 0.444\nsamples = 3\nvalue = [0, 0, 0, 0, 1, 0, 2, 0, 0, 0, 0, 0, 0]\nclass = Pinks"] ;
60 -> 62 ;
63 [label="gini = 0.0\nsamples = 84\nvalue = [0, 0, 0, 0, 84, 0, 0, 0, 0, 0, 0, 0, 0]\nclass = Khakis"] ;
59 -> 63 ;
64 [label="Most_Important_Issue_Education <= 0.5\ngini = 0.237\nsamples = 38\nvalue = [0, 0, 0, 0, 33, 0, 2, 0, 0, 3, 0, 0, 0]\nclass = Khakis"] ;
52 -> 64 ;
65 [label="Avg_Satisfaction_with_previous_vote <= -0.478\ngini = 0.611\nsamples = 6\nvalue = [0, 0, 0, 0, 1, 0, 2, 0, 0, 3, 0, 0, 0]\nclass = Turquoises"] ;
64 -> 65 ;
66 [label="gini = 0.0\nsamples = 3\nvalue = [0, 0, 0, 0, 0, 0, 0, 0, 0, 3, 0, 0, 0]\nclass = Turquoises"] ;
65 -> 66 ;
67 [label="gini = 0.444\nsamples = 3\nvalue = [0, 0, 0, 0, 1, 0, 2, 0, 0, 0, 0, 0, 0]\nclass = Pinks"] ;
65 -> 67 ;
68 [label="gini = 0.0\nsamples = 32\nvalue = [0, 0, 0, 0, 32, 0, 0, 0, 0, 0, 0, 0, 0]\nclass = Khakis"] ;
64 -> 68 ;
69 [label="Avg_size_per_room <= -0.207\ngini = 0.672\nsamples = 16\nvalue = [0, 1, 0, 0, 8, 1, 3, 0, 0, 3, 0, 0, 0]\nclass = Khakis"] ;
27 -> 69 ;
70 [label="gini = 0.56\nsamples = 5\nvalue = [0, 0, 0, 0, 1, 1, 3, 0, 0, 0, 0, 0, 0]\nclass = Pinks"] ;
69 -> 70 ;
71 [label="Political_interest_Total_Score <= -0.439\ngini = 0.512\nsamples = 11\nvalue = [0, 1, 0, 0, 7, 0, 0, 0, 0, 3, 0, 0, 0]\nclass = Khakis"] ;
69 -> 71 ;
72 [label="gini = 0.48\nsamples = 5\nvalue = [0, 0, 0, 0, 2, 0, 0, 0, 0, 3, 0, 0, 0]\nclass = Turquoises"] ;
71 -> 72 ;
73 [label="Weighted_education_rank <= -0.701\ngini = 0.278\nsamples = 6\nvalue = [0, 1, 0, 0, 5, 0, 0, 0, 0, 0, 0, 0, 0]\nclass = Khakis"] ;
71 -> 73 ;
74 [label="gini = 0.0\nsamples = 1\nvalue = [0, 1, 0, 0, 0, 0, 0, 0, 0, 0, 0, 0, 0]\nclass = Browns"] ;
73 -> 74 ;
75 [label="gini = 0.0\nsamples = 5\nvalue = [0, 0, 0, 0, 5, 0, 0, 0, 0, 0, 0, 0, 0]\nclass = Khakis"] ;
73 -> 75 ;
76 [label="Number_of_differnt_parties_voted_for <= -0.854\ngini = 0.48\nsamples = 15\nvalue = [0, 4, 0, 0, 0, 10, 0, 0, 0, 0, 1, 0, 0]\nclass = Oranges"] ;
6 -> 76 ;
77 [label="gini = 0.0\nsamples = 9\nvalue = [0, 0, 0, 0, 0, 9, 0, 0, 0, 0, 0, 0, 0]\nclass = Oranges"] ;
76 -> 77 ;
78 [label="Political_interest_Total_Score <= -0.028\ngini = 0.5\nsamples = 6\nvalue = [0, 4, 0, 0, 0, 1, 0, 0, 0, 0, 1, 0, 0]\nclass = Browns"] ;
76 -> 78 ;
79 [label="gini = 0.0\nsamples = 4\nvalue = [0, 4, 0, 0, 0, 0, 0, 0, 0, 0, 0, 0, 0]\nclass = Browns"] ;
78 -> 79 ;
80 [label="gini = 0.5\nsamples = 2\nvalue = [0, 0, 0, 0, 0, 1, 0, 0, 0, 0, 1, 0, 0]\nclass = Oranges"] ;
78 -> 80 ;
81 [label="Avg_size_per_room <= -0.692\ngini = 0.726\nsamples = 92\nvalue = [0, 1, 1, 0, 7, 9, 19, 0, 0, 12, 2, 41, 0]\nclass = Whites"] ;
5 -> 81 ;
82 [label="Weighted_education_rank <= -0.569\ngini = 0.099\nsamples = 39\nvalue = [0, 0, 0, 0, 0, 1, 1, 0, 0, 0, 0, 37, 0]\nclass = Whites"] ;
81 -> 82 ;
83 [label="gini = 0.0\nsamples = 37\nvalue = [0, 0, 0, 0, 0, 0, 0, 0, 0, 0, 0, 37, 0]\nclass = Whites"] ;
82 -> 83 ;
84 [label="gini = 0.5\nsamples = 2\nvalue = [0, 0, 0, 0, 0, 1, 1, 0, 0, 0, 0, 0, 0]\nclass = Oranges"] ;
82 -> 84 ;
85 [label="Most_Important_Issue_Military <= 0.5\ngini = 0.785\nsamples = 53\nvalue = [0, 1, 1, 0, 7, 8, 18, 0, 0, 12, 2, 4, 0]\nclass = Pinks"] ;
81 -> 85 ;
86 [label="Weighted_education_rank <= -0.577\ngini = 0.762\nsamples = 48\nvalue = [0, 1, 1, 0, 7, 3, 18, 0, 0, 12, 2, 4, 0]\nclass = Pinks"] ;
85 -> 86 ;
87 [label="Most_Important_Issue_Other <= 0.5\ngini = 0.705\nsamples = 27\nvalue = [0, 1, 1, 0, 5, 3, 13, 0, 0, 1, 0, 3, 0]\nclass = Pinks"] ;
86 -> 87 ;
88 [label="Political_interest_Total_Score <= -0.656\ngini = 0.642\nsamples = 24\nvalue = [0, 1, 1, 0, 5, 0, 13, 0, 0, 1, 0, 3, 0]\nclass = Pinks"] ;
87 -> 88 ;
89 [label="gini = 0.48\nsamples = 5\nvalue = [0, 0, 0, 0, 2, 0, 0, 0, 0, 0, 0, 3, 0]\nclass = Whites"] ;
88 -> 89 ;
90 [label="Avg_monthly_income_all_years <= -0.199\ngini = 0.499\nsamples = 19\nvalue = [0, 1, 1, 0, 3, 0, 13, 0, 0, 1, 0, 0, 0]\nclass = Pinks"] ;
88 -> 90 ;
91 [label="Avg_size_per_room <= 0.058\ngini = 0.272\nsamples = 13\nvalue = [0, 0, 1, 0, 0, 0, 11, 0, 0, 1, 0, 0, 0]\nclass = Pinks"] ;
90 -> 91 ;
92 [label="Avg_Satisfaction_with_previous_vote <= -1.53\ngini = 0.153\nsamples = 12\nvalue = [0, 0, 0, 0, 0, 0, 11, 0, 0, 1, 0, 0, 0]\nclass = Pinks"] ;
91 -> 92 ;
93 [label="gini = 0.5\nsamples = 2\nvalue = [0, 0, 0, 0, 0, 0, 1, 0, 0, 1, 0, 0, 0]\nclass = Pinks"] ;
92 -> 93 ;
94 [label="gini = 0.0\nsamples = 10\nvalue = [0, 0, 0, 0, 0, 0, 10, 0, 0, 0, 0, 0, 0]\nclass = Pinks"] ;
92 -> 94 ;
95 [label="gini = 0.0\nsamples = 1\nvalue = [0, 0, 1, 0, 0, 0, 0, 0, 0, 0, 0, 0, 0]\nclass = Greens"] ;
91 -> 95 ;
96 [label="Weighted_education_rank <= -0.691\ngini = 0.611\nsamples = 6\nvalue = [0, 1, 0, 0, 3, 0, 2, 0, 0, 0, 0, 0, 0]\nclass = Khakis"] ;
90 -> 96 ;
97 [label="gini = 0.444\nsamples = 3\nvalue = [0, 1, 0, 0, 0, 0, 2, 0, 0, 0, 0, 0, 0]\nclass = Pinks"] ;
96 -> 97 ;
98 [label="gini = 0.0\nsamples = 3\nvalue = [0, 0, 0, 0, 3, 0, 0, 0, 0, 0, 0, 0, 0]\nclass = Khakis"] ;
96 -> 98 ;
99 [label="gini = 0.0\nsamples = 3\nvalue = [0, 0, 0, 0, 0, 3, 0, 0, 0, 0, 0, 0, 0]\nclass = Oranges"] ;
87 -> 99 ;
100 [label="Avg_Satisfaction_with_previous_vote <= 0.429\ngini = 0.649\nsamples = 21\nvalue = [0, 0, 0, 0, 2, 0, 5, 0, 0, 11, 2, 1, 0]\nclass = Turquoises"] ;
86 -> 100 ;
101 [label="Most_Important_Issue_Environment <= 0.5\ngini = 0.582\nsamples = 19\nvalue = [0, 0, 0, 0, 2, 0, 5, 0, 0, 11, 0, 1, 0]\nclass = Turquoises"] ;
100 -> 101 ;
102 [label="Number_of_differnt_parties_voted_for <= -1.227\ngini = 0.418\nsamples = 15\nvalue = [0, 0, 0, 0, 1, 0, 3, 0, 0, 11, 0, 0, 0]\nclass = Turquoises"] ;
101 -> 102 ;
103 [label="gini = 0.0\nsamples = 2\nvalue = [0, 0, 0, 0, 0, 0, 2, 0, 0, 0, 0, 0, 0]\nclass = Pinks"] ;
102 -> 103 ;
104 [label="Most_Important_Issue_Education <= 0.5\ngini = 0.272\nsamples = 13\nvalue = [0, 0, 0, 0, 1, 0, 1, 0, 0, 11, 0, 0, 0]\nclass = Turquoises"] ;
102 -> 104 ;
105 [label="gini = 0.0\nsamples = 11\nvalue = [0, 0, 0, 0, 0, 0, 0, 0, 0, 11, 0, 0, 0]\nclass = Turquoises"] ;
104 -> 105 ;
106 [label="gini = 0.5\nsamples = 2\nvalue = [0, 0, 0, 0, 1, 0, 1, 0, 0, 0, 0, 0, 0]\nclass = Khakis"] ;
104 -> 106 ;
107 [label="gini = 0.625\nsamples = 4\nvalue = [0, 0, 0, 0, 1, 0, 2, 0, 0, 0, 0, 1, 0]\nclass = Pinks"] ;
101 -> 107 ;
108 [label="gini = 0.0\nsamples = 2\nvalue = [0, 0, 0, 0, 0, 0, 0, 0, 0, 0, 2, 0, 0]\nclass = Violets"] ;
100 -> 108 ;
109 [label="gini = 0.0\nsamples = 5\nvalue = [0, 0, 0, 0, 0, 5, 0, 0, 0, 0, 0, 0, 0]\nclass = Oranges"] ;
85 -> 109 ;
110 [label="Weighted_education_rank <= 0.011\ngini = 0.771\nsamples = 1087\nvalue = [4, 5, 0, 115, 350, 84, 8, 2, 2, 291, 1, 207\n18]\nclass = Khakis"] ;
4 -> 110 ;
111 [label="Number_of_differnt_parties_voted_for <= -1.227\ngini = 0.477\nsamples = 360\nvalue = [1, 2, 0, 23, 37, 29, 6, 0, 2, 255, 1, 4, 0]\nclass = Turquoises"] ;
110 -> 111 ;
112 [label="Weighted_education_rank <= -0.301\ngini = 0.711\nsamples = 60\nvalue = [0, 0, 0, 12, 22, 20, 3, 0, 2, 0, 0, 1, 0]\nclass = Khakis"] ;
111 -> 112 ;
113 [label="Overall_happiness_score <= -0.155\ngini = 0.351\nsamples = 24\nvalue = [0, 0, 0, 0, 19, 2, 3, 0, 0, 0, 0, 0, 0]\nclass = Khakis"] ;
112 -> 113 ;
114 [label="Political_interest_Total_Score <= -0.371\ngini = 0.177\nsamples = 21\nvalue = [0, 0, 0, 0, 19, 1, 1, 0, 0, 0, 0, 0, 0]\nclass = Khakis"] ;
113 -> 114 ;
115 [label="Avg_size_per_room <= -0.173\ngini = 0.095\nsamples = 20\nvalue = [0, 0, 0, 0, 19, 0, 1, 0, 0, 0, 0, 0, 0]\nclass = Khakis"] ;
114 -> 115 ;
116 [label="gini = 0.0\nsamples = 19\nvalue = [0, 0, 0, 0, 19, 0, 0, 0, 0, 0, 0, 0, 0]\nclass = Khakis"] ;
115 -> 116 ;
117 [label="gini = 0.0\nsamples = 1\nvalue = [0, 0, 0, 0, 0, 0, 1, 0, 0, 0, 0, 0, 0]\nclass = Pinks"] ;
115 -> 117 ;
118 [label="gini = 0.0\nsamples = 1\nvalue = [0, 0, 0, 0, 0, 1, 0, 0, 0, 0, 0, 0, 0]\nclass = Oranges"] ;
114 -> 118 ;
119 [label="gini = 0.444\nsamples = 3\nvalue = [0, 0, 0, 0, 0, 1, 2, 0, 0, 0, 0, 0, 0]\nclass = Pinks"] ;
113 -> 119 ;
120 [label="Political_interest_Total_Score <= -0.737\ngini = 0.628\nsamples = 36\nvalue = [0, 0, 0, 12, 3, 18, 0, 0, 2, 0, 0, 1, 0]\nclass = Oranges"] ;
112 -> 120 ;
121 [label="Political_interest_Total_Score <= -1.024\ngini = 0.525\nsamples = 18\nvalue = [0, 0, 0, 12, 2, 1, 0, 0, 2, 0, 0, 1, 0]\nclass = Greys"] ;
120 -> 121 ;
122 [label="gini = 0.667\nsamples = 3\nvalue = [0, 0, 0, 0, 1, 0, 0, 0, 1, 0, 0, 1, 0]\nclass = Khakis"] ;
121 -> 122 ;
123 [label="Most_Important_Issue_Healthcare <= 0.5\ngini = 0.347\nsamples = 15\nvalue = [0, 0, 0, 12, 1, 1, 0, 0, 1, 0, 0, 0, 0]\nclass = Greys"] ;
121 -> 123 ;
124 [label="Political_interest_Total_Score <= -0.785\ngini = 0.255\nsamples = 14\nvalue = [0, 0, 0, 12, 0, 1, 0, 0, 1, 0, 0, 0, 0]\nclass = Greys"] ;
123 -> 124 ;
125 [label="Most_Important_Issue_Other <= 0.5\ngini = 0.142\nsamples = 13\nvalue = [0, 0, 0, 12, 0, 1, 0, 0, 0, 0, 0, 0, 0]\nclass = Greys"] ;
124 -> 125 ;
126 [label="gini = 0.0\nsamples = 12\nvalue = [0, 0, 0, 12, 0, 0, 0, 0, 0, 0, 0, 0, 0]\nclass = Greys"] ;
125 -> 126 ;
127 [label="gini = 0.0\nsamples = 1\nvalue = [0, 0, 0, 0, 0, 1, 0, 0, 0, 0, 0, 0, 0]\nclass = Oranges"] ;
125 -> 127 ;
128 [label="gini = 0.0\nsamples = 1\nvalue = [0, 0, 0, 0, 0, 0, 0, 0, 1, 0, 0, 0, 0]\nclass = Reds"] ;
124 -> 128 ;
129 [label="gini = 0.0\nsamples = 1\nvalue = [0, 0, 0, 0, 1, 0, 0, 0, 0, 0, 0, 0, 0]\nclass = Khakis"] ;
123 -> 129 ;
130 [label="Most_Important_Issue_Financial <= 0.5\ngini = 0.105\nsamples = 18\nvalue = [0, 0, 0, 0, 1, 17, 0, 0, 0, 0, 0, 0, 0]\nclass = Oranges"] ;
120 -> 130 ;
131 [label="gini = 0.0\nsamples = 17\nvalue = [0, 0, 0, 0, 0, 17, 0, 0, 0, 0, 0, 0, 0]\nclass = Oranges"] ;
130 -> 131 ;
132 [label="gini = 0.0\nsamples = 1\nvalue = [0, 0, 0, 0, 1, 0, 0, 0, 0, 0, 0, 0, 0]\nclass = Khakis"] ;
130 -> 132 ;
133 [label="Most_Important_Issue_Environment <= 0.5\ngini = 0.272\nsamples = 300\nvalue = [1, 2, 0, 11, 15, 9, 3, 0, 0, 255, 1, 3, 0]\nclass = Turquoises"] ;
111 -> 133 ;
134 [label="Most_Important_Issue_Other <= 0.5\ngini = 0.213\nsamples = 288\nvalue = [1, 2, 0, 11, 7, 9, 1, 0, 0, 255, 1, 1, 0]\nclass = Turquoises"] ;
133 -> 134 ;
135 [label="Most_Important_Issue_Foreign_Affairs <= 0.5\ngini = 0.18\nsamples = 282\nvalue = [1, 2, 0, 11, 7, 3, 1, 0, 0, 255, 1, 1, 0]\nclass = Turquoises"] ;
134 -> 135 ;
136 [label="Most_Important_Issue_Military <= 0.5\ngini = 0.145\nsamples = 276\nvalue = [1, 2, 0, 5, 7, 3, 1, 0, 0, 255, 1, 1, 0]\nclass = Turquoises"] ;
135 -> 136 ;
137 [label="Most_Important_Issue_Education <= 0.5\ngini = 0.094\nsamples = 268\nvalue = [1, 2, 0, 0, 7, 0, 1, 0, 0, 255, 1, 1, 0]\nclass = Turquoises"] ;
136 -> 137 ;
138 [label="Avg_Satisfaction_with_previous_vote <= 0.724\ngini = 0.046\nsamples = 259\nvalue = [1, 2, 0, 0, 1, 0, 0, 0, 0, 253, 1, 1, 0]\nclass = Turquoises"] ;
137 -> 138 ;
139 [label="Weighted_education_rank <= 0.009\ngini = 0.016\nsamples = 255\nvalue = [0, 0, 0, 0, 1, 0, 0, 0, 0, 253, 0, 1, 0]\nclass = Turquoises"] ;
138 -> 139 ;
140 [label="Weighted_education_rank <= -0.032\ngini = 0.008\nsamples = 251\nvalue = [0, 0, 0, 0, 0, 0, 0, 0, 0, 250, 0, 1, 0]\nclass = Turquoises"] ;
139 -> 140 ;
141 [label="gini = 0.0\nsamples = 227\nvalue = [0, 0, 0, 0, 0, 0, 0, 0, 0, 227, 0, 0, 0]\nclass = Turquoises"] ;
140 -> 141 ;
142 [label="Weighted_education_rank <= -0.032\ngini = 0.08\nsamples = 24\nvalue = [0, 0, 0, 0, 0, 0, 0, 0, 0, 23, 0, 1, 0]\nclass = Turquoises"] ;
140 -> 142 ;
143 [label="gini = 0.0\nsamples = 1\nvalue = [0, 0, 0, 0, 0, 0, 0, 0, 0, 0, 0, 1, 0]\nclass = Whites"] ;
142 -> 143 ;
144 [label="gini = 0.0\nsamples = 23\nvalue = [0, 0, 0, 0, 0, 0, 0, 0, 0, 23, 0, 0, 0]\nclass = Turquoises"] ;
142 -> 144 ;
145 [label="gini = 0.375\nsamples = 4\nvalue = [0, 0, 0, 0, 1, 0, 0, 0, 0, 3, 0, 0, 0]\nclass = Turquoises"] ;
139 -> 145 ;
146 [label="gini = 0.625\nsamples = 4\nvalue = [1, 2, 0, 0, 0, 0, 0, 0, 0, 0, 1, 0, 0]\nclass = Browns"] ;
138 -> 146 ;
147 [label="Avg_size_per_room <= -0.225\ngini = 0.494\nsamples = 9\nvalue = [0, 0, 0, 0, 6, 0, 1, 0, 0, 2, 0, 0, 0]\nclass = Khakis"] ;
137 -> 147 ;
148 [label="gini = 0.0\nsamples = 6\nvalue = [0, 0, 0, 0, 6, 0, 0, 0, 0, 0, 0, 0, 0]\nclass = Khakis"] ;
147 -> 148 ;
149 [label="gini = 0.444\nsamples = 3\nvalue = [0, 0, 0, 0, 0, 0, 1, 0, 0, 2, 0, 0, 0]\nclass = Turquoises"] ;
147 -> 149 ;
150 [label="Avg_size_per_room <= -0.281\ngini = 0.469\nsamples = 8\nvalue = [0, 0, 0, 5, 0, 3, 0, 0, 0, 0, 0, 0, 0]\nclass = Greys"] ;
136 -> 150 ;
151 [label="gini = 0.0\nsamples = 3\nvalue = [0, 0, 0, 0, 0, 3, 0, 0, 0, 0, 0, 0, 0]\nclass = Oranges"] ;
150 -> 151 ;
152 [label="gini = 0.0\nsamples = 5\nvalue = [0, 0, 0, 5, 0, 0, 0, 0, 0, 0, 0, 0, 0]\nclass = Greys"] ;
150 -> 152 ;
153 [label="gini = 0.0\nsamples = 6\nvalue = [0, 0, 0, 6, 0, 0, 0, 0, 0, 0, 0, 0, 0]\nclass = Greys"] ;
135 -> 153 ;
154 [label="gini = 0.0\nsamples = 6\nvalue = [0, 0, 0, 0, 0, 6, 0, 0, 0, 0, 0, 0, 0]\nclass = Oranges"] ;
134 -> 154 ;
155 [label="Number_of_differnt_parties_voted_for <= -0.48\ngini = 0.5\nsamples = 12\nvalue = [0, 0, 0, 0, 8, 0, 2, 0, 0, 0, 0, 2, 0]\nclass = Khakis"] ;
133 -> 155 ;
156 [label="gini = 0.0\nsamples = 8\nvalue = [0, 0, 0, 0, 8, 0, 0, 0, 0, 0, 0, 0, 0]\nclass = Khakis"] ;
155 -> 156 ;
157 [label="gini = 0.5\nsamples = 4\nvalue = [0, 0, 0, 0, 0, 0, 2, 0, 0, 0, 0, 2, 0]\nclass = Pinks"] ;
155 -> 157 ;
158 [label="Political_interest_Total_Score <= -0.965\ngini = 0.712\nsamples = 727\nvalue = [3, 3, 0, 92, 313, 55, 2, 2, 0, 36, 0, 203, 18]\nclass = Khakis"] ;
110 -> 158 ;
159 [label="Overall_happiness_score <= -0.07\ngini = 0.528\nsamples = 441\nvalue = [0, 0, 0, 23, 279, 0, 0, 1, 0, 25, 0, 113, 0]\nclass = Khakis"] ;
158 -> 159 ;
160 [label="Most_Important_Issue_Military <= 0.5\ngini = 0.362\nsamples = 313\nvalue = [0, 0, 0, 10, 245, 0, 0, 1, 0, 9, 0, 48, 0]\nclass = Khakis"] ;
159 -> 160 ;
161 [label="Most_Important_Issue_Foreign_Affairs <= 0.5\ngini = 0.338\nsamples = 307\nvalue = [0, 0, 0, 4, 245, 0, 0, 1, 0, 9, 0, 48, 0]\nclass = Khakis"] ;
160 -> 161 ;
162 [label="Overall_happiness_score <= -0.169\ngini = 0.32\nsamples = 303\nvalue = [0, 0, 0, 0, 245, 0, 0, 1, 0, 9, 0, 48, 0]\nclass = Khakis"] ;
161 -> 162 ;
163 [label="Avg_size_per_room <= -0.686\ngini = 0.142\nsamples = 145\nvalue = [0, 0, 0, 0, 134, 0, 0, 1, 0, 1, 0, 9, 0]\nclass = Khakis"] ;
162 -> 163 ;
164 [label="gini = 0.0\nsamples = 1\nvalue = [0, 0, 0, 0, 0, 0, 0, 1, 0, 0, 0, 0, 0]\nclass = Purples"] ;
163 -> 164 ;
165 [label="Weighted_education_rank <= 0.027\ngini = 0.13\nsamples = 144\nvalue = [0, 0, 0, 0, 134, 0, 0, 0, 0, 1, 0, 9, 0]\nclass = Khakis"] ;
163 -> 165 ;
166 [label="gini = 0.0\nsamples = 1\nvalue = [0, 0, 0, 0, 0, 0, 0, 0, 0, 0, 0, 1, 0]\nclass = Whites"] ;
165 -> 166 ;
167 [label="Weighted_education_rank <= 0.257\ngini = 0.119\nsamples = 143\nvalue = [0, 0, 0, 0, 134, 0, 0, 0, 0, 1, 0, 8, 0]\nclass = Khakis"] ;
165 -> 167 ;
168 [label="Avg_Satisfaction_with_previous_vote <= -0.442\ngini = 0.076\nsamples = 128\nvalue = [0, 0, 0, 0, 123, 0, 0, 0, 0, 1, 0, 4, 0]\nclass = Khakis"] ;
167 -> 168 ;
169 [label="gini = 0.0\nsamples = 86\nvalue = [0, 0, 0, 0, 86, 0, 0, 0, 0, 0, 0, 0, 0]\nclass = Khakis"] ;
168 -> 169 ;
170 [label="Overall_happiness_score <= -0.172\ngini = 0.214\nsamples = 42\nvalue = [0, 0, 0, 0, 37, 0, 0, 0, 0, 1, 0, 4, 0]\nclass = Khakis"] ;
168 -> 170 ;
171 [label="Avg_Satisfaction_with_previous_vote <= -0.433\ngini = 0.176\nsamples = 41\nvalue = [0, 0, 0, 0, 37, 0, 0, 0, 0, 0, 0, 4, 0]\nclass = Khakis"] ;
170 -> 171 ;
172 [label="gini = 0.0\nsamples = 1\nvalue = [0, 0, 0, 0, 0, 0, 0, 0, 0, 0, 0, 1, 0]\nclass = Whites"] ;
171 -> 172 ;
173 [label="Avg_monthly_income_all_years <= -1.03\ngini = 0.139\nsamples = 40\nvalue = [0, 0, 0, 0, 37, 0, 0, 0, 0, 0, 0, 3, 0]\nclass = Khakis"] ;
171 -> 173 ;
174 [label="gini = 0.5\nsamples = 2\nvalue = [0, 0, 0, 0, 1, 0, 0, 0, 0, 0, 0, 1, 0]\nclass = Khakis"] ;
173 -> 174 ;
175 [label="Avg_monthly_income_all_years <= 0.129\ngini = 0.1\nsamples = 38\nvalue = [0, 0, 0, 0, 36, 0, 0, 0, 0, 0, 0, 2, 0]\nclass = Khakis"] ;
173 -> 175 ;
176 [label="gini = 0.0\nsamples = 28\nvalue = [0, 0, 0, 0, 28, 0, 0, 0, 0, 0, 0, 0, 0]\nclass = Khakis"] ;
175 -> 176 ;
177 [label="Avg_monthly_income_all_years <= 0.699\ngini = 0.32\nsamples = 10\nvalue = [0, 0, 0, 0, 8, 0, 0, 0, 0, 0, 0, 2, 0]\nclass = Khakis"] ;
175 -> 177 ;
178 [label="gini = 0.444\nsamples = 3\nvalue = [0, 0, 0, 0, 1, 0, 0, 0, 0, 0, 0, 2, 0]\nclass = Whites"] ;
177 -> 178 ;
179 [label="gini = 0.0\nsamples = 7\nvalue = [0, 0, 0, 0, 7, 0, 0, 0, 0, 0, 0, 0, 0]\nclass = Khakis"] ;
177 -> 179 ;
180 [label="gini = 0.0\nsamples = 1\nvalue = [0, 0, 0, 0, 0, 0, 0, 0, 0, 1, 0, 0, 0]\nclass = Turquoises"] ;
170 -> 180 ;
181 [label="Weighted_education_rank <= 0.263\ngini = 0.391\nsamples = 15\nvalue = [0, 0, 0, 0, 11, 0, 0, 0, 0, 0, 0, 4, 0]\nclass = Khakis"] ;
167 -> 181 ;
182 [label="gini = 0.0\nsamples = 2\nvalue = [0, 0, 0, 0, 0, 0, 0, 0, 0, 0, 0, 2, 0]\nclass = Whites"] ;
181 -> 182 ;
183 [label="Yearly_IncomeK <= 0.806\ngini = 0.26\nsamples = 13\nvalue = [0, 0, 0, 0, 11, 0, 0, 0, 0, 0, 0, 2, 0]\nclass = Khakis"] ;
181 -> 183 ;
184 [label="Political_interest_Total_Score <= -1.016\ngini = 0.153\nsamples = 12\nvalue = [0, 0, 0, 0, 11, 0, 0, 0, 0, 0, 0, 1, 0]\nclass = Khakis"] ;
183 -> 184 ;
185 [label="gini = 0.0\nsamples = 11\nvalue = [0, 0, 0, 0, 11, 0, 0, 0, 0, 0, 0, 0, 0]\nclass = Khakis"] ;
184 -> 185 ;
186 [label="gini = 0.0\nsamples = 1\nvalue = [0, 0, 0, 0, 0, 0, 0, 0, 0, 0, 0, 1, 0]\nclass = Whites"] ;
184 -> 186 ;
187 [label="gini = 0.0\nsamples = 1\nvalue = [0, 0, 0, 0, 0, 0, 0, 0, 0, 0, 0, 1, 0]\nclass = Whites"] ;
183 -> 187 ;
188 [label="Political_interest_Total_Score <= -1.056\ngini = 0.443\nsamples = 158\nvalue = [0, 0, 0, 0, 111, 0, 0, 0, 0, 8, 0, 39, 0]\nclass = Khakis"] ;
162 -> 188 ;
189 [label="Weighted_education_rank <= 0.086\ngini = 0.351\nsamples = 135\nvalue = [0, 0, 0, 0, 106, 0, 0, 0, 0, 5, 0, 24, 0]\nclass = Khakis"] ;
188 -> 189 ;
190 [label="Avg_size_per_room <= 0.02\ngini = 0.449\nsamples = 7\nvalue = [0, 0, 0, 0, 1, 0, 0, 0, 0, 1, 0, 5, 0]\nclass = Whites"] ;
189 -> 190 ;
191 [label="gini = 0.0\nsamples = 5\nvalue = [0, 0, 0, 0, 0, 0, 0, 0, 0, 0, 0, 5, 0]\nclass = Whites"] ;
190 -> 191 ;
192 [label="gini = 0.5\nsamples = 2\nvalue = [0, 0, 0, 0, 1, 0, 0, 0, 0, 1, 0, 0, 0]\nclass = Khakis"] ;
190 -> 192 ;
193 [label="Number_of_differnt_parties_voted_for <= -1.227\ngini = 0.304\nsamples = 128\nvalue = [0, 0, 0, 0, 105, 0, 0, 0, 0, 4, 0, 19, 0]\nclass = Khakis"] ;
189 -> 193 ;
194 [label="Avg_size_per_room <= -0.064\ngini = 0.114\nsamples = 66\nvalue = [0, 0, 0, 0, 62, 0, 0, 0, 0, 0, 0, 4, 0]\nclass = Khakis"] ;
193 -> 194 ;
195 [label="Avg_size_per_room <= -0.07\ngini = 0.278\nsamples = 18\nvalue = [0, 0, 0, 0, 15, 0, 0, 0, 0, 0, 0, 3, 0]\nclass = Khakis"] ;
194 -> 195 ;
196 [label="Avg_monthly_income_all_years <= 0.684\ngini = 0.208\nsamples = 17\nvalue = [0, 0, 0, 0, 15, 0, 0, 0, 0, 0, 0, 2, 0]\nclass = Khakis"] ;
195 -> 196 ;
197 [label="gini = 0.0\nsamples = 13\nvalue = [0, 0, 0, 0, 13, 0, 0, 0, 0, 0, 0, 0, 0]\nclass = Khakis"] ;
196 -> 197 ;
198 [label="gini = 0.5\nsamples = 4\nvalue = [0, 0, 0, 0, 2, 0, 0, 0, 0, 0, 0, 2, 0]\nclass = Khakis"] ;
196 -> 198 ;
199 [label="gini = 0.0\nsamples = 1\nvalue = [0, 0, 0, 0, 0, 0, 0, 0, 0, 0, 0, 1, 0]\nclass = Whites"] ;
195 -> 199 ;
200 [label="Political_interest_Total_Score <= -1.248\ngini = 0.041\nsamples = 48\nvalue = [0, 0, 0, 0, 47, 0, 0, 0, 0, 0, 0, 1, 0]\nclass = Khakis"] ;
194 -> 200 ;
201 [label="gini = 0.32\nsamples = 5\nvalue = [0, 0, 0, 0, 4, 0, 0, 0, 0, 0, 0, 1, 0]\nclass = Khakis"] ;
200 -> 201 ;
202 [label="gini = 0.0\nsamples = 43\nvalue = [0, 0, 0, 0, 43, 0, 0, 0, 0, 0, 0, 0, 0]\nclass = Khakis"] ;
200 -> 202 ;
203 [label="Most_Important_Issue_Social <= 0.5\ngini = 0.456\nsamples = 62\nvalue = [0, 0, 0, 0, 43, 0, 0, 0, 0, 4, 0, 15, 0]\nclass = Khakis"] ;
193 -> 203 ;
204 [label="Most_Important_Issue_Financial <= 0.5\ngini = 0.362\nsamples = 55\nvalue = [0, 0, 0, 0, 43, 0, 0, 0, 0, 4, 0, 8, 0]\nclass = Khakis"] ;
203 -> 204 ;
205 [label="Weighted_education_rank <= 0.336\ngini = 0.265\nsamples = 51\nvalue = [0, 0, 0, 0, 43, 0, 0, 0, 0, 0, 0, 8, 0]\nclass = Khakis"] ;
204 -> 205 ;
206 [label="Overall_happiness_score <= -0.086\ngini = 0.215\nsamples = 49\nvalue = [0, 0, 0, 0, 43, 0, 0, 0, 0, 0, 0, 6, 0]\nclass = Khakis"] ;
205 -> 206 ;
207 [label="Avg_size_per_room <= -0.075\ngini = 0.127\nsamples = 44\nvalue = [0, 0, 0, 0, 41, 0, 0, 0, 0, 0, 0, 3, 0]\nclass = Khakis"] ;
206 -> 207 ;
208 [label="Avg_size_per_room <= -0.09\ngini = 0.337\nsamples = 14\nvalue = [0, 0, 0, 0, 11, 0, 0, 0, 0, 0, 0, 3, 0]\nclass = Khakis"] ;
207 -> 208 ;
209 [label="gini = 0.0\nsamples = 9\nvalue = [0, 0, 0, 0, 9, 0, 0, 0, 0, 0, 0, 0, 0]\nclass = Khakis"] ;
208 -> 209 ;
210 [label="gini = 0.48\nsamples = 5\nvalue = [0, 0, 0, 0, 2, 0, 0, 0, 0, 0, 0, 3, 0]\nclass = Whites"] ;
208 -> 210 ;
211 [label="gini = 0.0\nsamples = 30\nvalue = [0, 0, 0, 0, 30, 0, 0, 0, 0, 0, 0, 0, 0]\nclass = Khakis"] ;
207 -> 211 ;
212 [label="gini = 0.48\nsamples = 5\nvalue = [0, 0, 0, 0, 2, 0, 0, 0, 0, 0, 0, 3, 0]\nclass = Whites"] ;
206 -> 212 ;
213 [label="gini = 0.0\nsamples = 2\nvalue = [0, 0, 0, 0, 0, 0, 0, 0, 0, 0, 0, 2, 0]\nclass = Whites"] ;
205 -> 213 ;
214 [label="gini = 0.0\nsamples = 4\nvalue = [0, 0, 0, 0, 0, 0, 0, 0, 0, 4, 0, 0, 0]\nclass = Turquoises"] ;
204 -> 214 ;
215 [label="gini = 0.0\nsamples = 7\nvalue = [0, 0, 0, 0, 0, 0, 0, 0, 0, 0, 0, 7, 0]\nclass = Whites"] ;
203 -> 215 ;
216 [label="Weighted_education_rank <= 0.301\ngini = 0.51\nsamples = 23\nvalue = [0, 0, 0, 0, 5, 0, 0, 0, 0, 3, 0, 15, 0]\nclass = Whites"] ;
188 -> 216 ;
217 [label="Weighted_education_rank <= 0.104\ngini = 0.643\nsamples = 14\nvalue = [0, 0, 0, 0, 5, 0, 0, 0, 0, 3, 0, 6, 0]\nclass = Whites"] ;
216 -> 217 ;
218 [label="Most_Important_Issue_Financial <= 0.5\ngini = 0.49\nsamples = 7\nvalue = [0, 0, 0, 0, 0, 0, 0, 0, 0, 3, 0, 4, 0]\nclass = Whites"] ;
217 -> 218 ;
219 [label="gini = 0.0\nsamples = 3\nvalue = [0, 0, 0, 0, 0, 0, 0, 0, 0, 0, 0, 3, 0]\nclass = Whites"] ;
218 -> 219 ;
220 [label="gini = 0.375\nsamples = 4\nvalue = [0, 0, 0, 0, 0, 0, 0, 0, 0, 3, 0, 1, 0]\nclass = Turquoises"] ;
218 -> 220 ;
221 [label="Avg_monthly_income_all_years <= 0.087\ngini = 0.408\nsamples = 7\nvalue = [0, 0, 0, 0, 5, 0, 0, 0, 0, 0, 0, 2, 0]\nclass = Khakis"] ;
217 -> 221 ;
222 [label="gini = 0.0\nsamples = 5\nvalue = [0, 0, 0, 0, 5, 0, 0, 0, 0, 0, 0, 0, 0]\nclass = Khakis"] ;
221 -> 222 ;
223 [label="gini = 0.0\nsamples = 2\nvalue = [0, 0, 0, 0, 0, 0, 0, 0, 0, 0, 0, 2, 0]\nclass = Whites"] ;
221 -> 223 ;
224 [label="gini = 0.0\nsamples = 9\nvalue = [0, 0, 0, 0, 0, 0, 0, 0, 0, 0, 0, 9, 0]\nclass = Whites"] ;
216 -> 224 ;
225 [label="gini = 0.0\nsamples = 4\nvalue = [0, 0, 0, 4, 0, 0, 0, 0, 0, 0, 0, 0, 0]\nclass = Greys"] ;
161 -> 225 ;
226 [label="gini = 0.0\nsamples = 6\nvalue = [0, 0, 0, 6, 0, 0, 0, 0, 0, 0, 0, 0, 0]\nclass = Greys"] ;
160 -> 226 ;
227 [label="Most_Important_Issue_Military <= 0.5\ngini = 0.646\nsamples = 128\nvalue = [0, 0, 0, 13, 34, 0, 0, 0, 0, 16, 0, 65, 0]\nclass = Whites"] ;
159 -> 227 ;
228 [label="Most_Important_Issue_Foreign_Affairs <= 0.5\ngini = 0.613\nsamples = 121\nvalue = [0, 0, 0, 6, 34, 0, 0, 0, 0, 16, 0, 65, 0]\nclass = Whites"] ;
227 -> 228 ;
229 [label="Weighted_education_rank <= 0.112\ngini = 0.574\nsamples = 115\nvalue = [0, 0, 0, 0, 34, 0, 0, 0, 0, 16, 0, 65, 0]\nclass = Whites"] ;
228 -> 229 ;
230 [label="Number_of_differnt_parties_voted_for <= -1.227\ngini = 0.526\nsamples = 17\nvalue = [0, 0, 0, 0, 1, 0, 0, 0, 0, 10, 0, 6, 0]\nclass = Turquoises"] ;
229 -> 230 ;
231 [label="gini = 0.32\nsamples = 5\nvalue = [0, 0, 0, 0, 1, 0, 0, 0, 0, 0, 0, 4, 0]\nclass = Whites"] ;
230 -> 231 ;
232 [label="Overall_happiness_score <= -0.066\ngini = 0.278\nsamples = 12\nvalue = [0, 0, 0, 0, 0, 0, 0, 0, 0, 10, 0, 2, 0]\nclass = Turquoises"] ;
230 -> 232 ;
233 [label="gini = 0.0\nsamples = 2\nvalue = [0, 0, 0, 0, 0, 0, 0, 0, 0, 0, 0, 2, 0]\nclass = Whites"] ;
232 -> 233 ;
234 [label="gini = 0.0\nsamples = 10\nvalue = [0, 0, 0, 0, 0, 0, 0, 0, 0, 10, 0, 0, 0]\nclass = Turquoises"] ;
232 -> 234 ;
235 [label="Overall_happiness_score <= -0.013\ngini = 0.52\nsamples = 98\nvalue = [0, 0, 0, 0, 33, 0, 0, 0, 0, 6, 0, 59, 0]\nclass = Whites"] ;
229 -> 235 ;
236 [label="Overall_happiness_score <= -0.068\ngini = 0.553\nsamples = 43\nvalue = [0, 0, 0, 0, 23, 0, 0, 0, 0, 3, 0, 17, 0]\nclass = Khakis"] ;
235 -> 236 ;
237 [label="gini = 0.0\nsamples = 5\nvalue = [0, 0, 0, 0, 0, 0, 0, 0, 0, 0, 0, 5, 0]\nclass = Whites"] ;
236 -> 237 ;
238 [label="Avg_size_per_room <= -0.207\ngini = 0.528\nsamples = 38\nvalue = [0, 0, 0, 0, 23, 0, 0, 0, 0, 3, 0, 12, 0]\nclass = Khakis"] ;
236 -> 238 ;
239 [label="gini = 0.0\nsamples = 2\nvalue = [0, 0, 0, 0, 0, 0, 0, 0, 0, 2, 0, 0, 0]\nclass = Turquoises"] ;
238 -> 239 ;
240 [label="Overall_happiness_score <= -0.06\ngini = 0.48\nsamples = 36\nvalue = [0, 0, 0, 0, 23, 0, 0, 0, 0, 1, 0, 12, 0]\nclass = Khakis"] ;
238 -> 240 ;
241 [label="gini = 0.0\nsamples = 6\nvalue = [0, 0, 0, 0, 6, 0, 0, 0, 0, 0, 0, 0, 0]\nclass = Khakis"] ;
240 -> 241 ;
242 [label="Overall_happiness_score <= -0.029\ngini = 0.518\nsamples = 30\nvalue = [0, 0, 0, 0, 17, 0, 0, 0, 0, 1, 0, 12, 0]\nclass = Khakis"] ;
240 -> 242 ;
243 [label="Avg_size_per_room <= -0.086\ngini = 0.499\nsamples = 23\nvalue = [0, 0, 0, 0, 11, 0, 0, 0, 0, 0, 0, 12, 0]\nclass = Whites"] ;
242 -> 243 ;
244 [label="gini = 0.0\nsamples = 5\nvalue = [0, 0, 0, 0, 5, 0, 0, 0, 0, 0, 0, 0, 0]\nclass = Khakis"] ;
243 -> 244 ;
245 [label="Avg_size_per_room <= 0.035\ngini = 0.444\nsamples = 18\nvalue = [0, 0, 0, 0, 6, 0, 0, 0, 0, 0, 0, 12, 0]\nclass = Whites"] ;
243 -> 245 ;
246 [label="Avg_monthly_income_all_years <= -1.012\ngini = 0.18\nsamples = 10\nvalue = [0, 0, 0, 0, 1, 0, 0, 0, 0, 0, 0, 9, 0]\nclass = Whites"] ;
245 -> 246 ;
247 [label="gini = 0.0\nsamples = 1\nvalue = [0, 0, 0, 0, 1, 0, 0, 0, 0, 0, 0, 0, 0]\nclass = Khakis"] ;
246 -> 247 ;
248 [label="gini = 0.0\nsamples = 9\nvalue = [0, 0, 0, 0, 0, 0, 0, 0, 0, 0, 0, 9, 0]\nclass = Whites"] ;
246 -> 248 ;
249 [label="Avg_size_per_room <= 0.079\ngini = 0.469\nsamples = 8\nvalue = [0, 0, 0, 0, 5, 0, 0, 0, 0, 0, 0, 3, 0]\nclass = Khakis"] ;
245 -> 249 ;
250 [label="gini = 0.0\nsamples = 4\nvalue = [0, 0, 0, 0, 4, 0, 0, 0, 0, 0, 0, 0, 0]\nclass = Khakis"] ;
249 -> 250 ;
251 [label="gini = 0.375\nsamples = 4\nvalue = [0, 0, 0, 0, 1, 0, 0, 0, 0, 0, 0, 3, 0]\nclass = Whites"] ;
249 -> 251 ;
252 [label="Avg_monthly_income_all_years <= 0.139\ngini = 0.245\nsamples = 7\nvalue = [0, 0, 0, 0, 6, 0, 0, 0, 0, 1, 0, 0, 0]\nclass = Khakis"] ;
242 -> 252 ;
253 [label="gini = 0.0\nsamples = 6\nvalue = [0, 0, 0, 0, 6, 0, 0, 0, 0, 0, 0, 0, 0]\nclass = Khakis"] ;
252 -> 253 ;
254 [label="gini = 0.0\nsamples = 1\nvalue = [0, 0, 0, 0, 0, 0, 0, 0, 0, 1, 0, 0, 0]\nclass = Turquoises"] ;
252 -> 254 ;
255 [label="Avg_monthly_income_all_years <= -0.016\ngini = 0.381\nsamples = 55\nvalue = [0, 0, 0, 0, 10, 0, 0, 0, 0, 3, 0, 42, 0]\nclass = Whites"] ;
235 -> 255 ;
256 [label="Avg_monthly_income_all_years <= -0.719\ngini = 0.5\nsamples = 37\nvalue = [0, 0, 0, 0, 10, 0, 0, 0, 0, 3, 0, 24, 0]\nclass = Whites"] ;
255 -> 256 ;
257 [label="Avg_monthly_income_all_years <= -1.027\ngini = 0.124\nsamples = 15\nvalue = [0, 0, 0, 0, 1, 0, 0, 0, 0, 0, 0, 14, 0]\nclass = Whites"] ;
256 -> 257 ;
258 [label="gini = 0.0\nsamples = 1\nvalue = [0, 0, 0, 0, 1, 0, 0, 0, 0, 0, 0, 0, 0]\nclass = Khakis"] ;
257 -> 258 ;
259 [label="gini = 0.0\nsamples = 14\nvalue = [0, 0, 0, 0, 0, 0, 0, 0, 0, 0, 0, 14, 0]\nclass = Whites"] ;
257 -> 259 ;
260 [label="Number_of_differnt_parties_voted_for <= -0.48\ngini = 0.607\nsamples = 22\nvalue = [0, 0, 0, 0, 9, 0, 0, 0, 0, 3, 0, 10, 0]\nclass = Whites"] ;
256 -> 260 ;
261 [label="Avg_size_per_room <= -0.024\ngini = 0.581\nsamples = 17\nvalue = [0, 0, 0, 0, 9, 0, 0, 0, 0, 2, 0, 6, 0]\nclass = Khakis"] ;
260 -> 261 ;
262 [label="Weighted_education_rank <= 0.265\ngini = 0.5\nsamples = 6\nvalue = [0, 0, 0, 0, 1, 0, 0, 0, 0, 1, 0, 4, 0]\nclass = Whites"] ;
261 -> 262 ;
263 [label="gini = 0.5\nsamples = 2\nvalue = [0, 0, 0, 0, 1, 0, 0, 0, 0, 1, 0, 0, 0]\nclass = Khakis"] ;
262 -> 263 ;
264 [label="gini = 0.0\nsamples = 4\nvalue = [0, 0, 0, 0, 0, 0, 0, 0, 0, 0, 0, 4, 0]\nclass = Whites"] ;
262 -> 264 ;
265 [label="Yearly_IncomeK <= 0.873\ngini = 0.43\nsamples = 11\nvalue = [0, 0, 0, 0, 8, 0, 0, 0, 0, 1, 0, 2, 0]\nclass = Khakis"] ;
261 -> 265 ;
266 [label="Most_Important_Issue_Financial <= 0.5\ngini = 0.198\nsamples = 9\nvalue = [0, 0, 0, 0, 8, 0, 0, 0, 0, 0, 0, 1, 0]\nclass = Khakis"] ;
265 -> 266 ;
267 [label="gini = 0.0\nsamples = 7\nvalue = [0, 0, 0, 0, 7, 0, 0, 0, 0, 0, 0, 0, 0]\nclass = Khakis"] ;
266 -> 267 ;
268 [label="gini = 0.5\nsamples = 2\nvalue = [0, 0, 0, 0, 1, 0, 0, 0, 0, 0, 0, 1, 0]\nclass = Khakis"] ;
266 -> 268 ;
269 [label="gini = 0.5\nsamples = 2\nvalue = [0, 0, 0, 0, 0, 0, 0, 0, 0, 1, 0, 1, 0]\nclass = Turquoises"] ;
265 -> 269 ;
270 [label="gini = 0.32\nsamples = 5\nvalue = [0, 0, 0, 0, 0, 0, 0, 0, 0, 1, 0, 4, 0]\nclass = Whites"] ;
260 -> 270 ;
271 [label="gini = 0.0\nsamples = 18\nvalue = [0, 0, 0, 0, 0, 0, 0, 0, 0, 0, 0, 18, 0]\nclass = Whites"] ;
255 -> 271 ;
272 [label="gini = 0.0\nsamples = 6\nvalue = [0, 0, 0, 6, 0, 0, 0, 0, 0, 0, 0, 0, 0]\nclass = Greys"] ;
228 -> 272 ;
273 [label="gini = 0.0\nsamples = 7\nvalue = [0, 0, 0, 7, 0, 0, 0, 0, 0, 0, 0, 0, 0]\nclass = Greys"] ;
227 -> 273 ;
274 [label="Political_interest_Total_Score <= -0.67\ngini = 0.786\nsamples = 286\nvalue = [3, 3, 0, 69, 34, 55, 2, 1, 0, 11, 0, 90, 18]\nclass = Whites"] ;
158 -> 274 ;
275 [label="Most_Important_Issue_Foreign_Affairs <= 0.5\ngini = 0.678\nsamples = 201\nvalue = [0, 0, 0, 66, 30, 8, 0, 0, 0, 10, 0, 87, 0]\nclass = Whites"] ;
274 -> 275 ;
276 [label="Most_Important_Issue_Military <= 0.5\ngini = 0.646\nsamples = 163\nvalue = [0, 0, 0, 28, 30, 8, 0, 0, 0, 10, 0, 87, 0]\nclass = Whites"] ;
275 -> 276 ;
277 [label="Weighted_education_rank <= 0.185\ngini = 0.492\nsamples = 130\nvalue = [0, 0, 0, 0, 30, 3, 0, 0, 0, 10, 0, 87, 0]\nclass = Whites"] ;
276 -> 277 ;
278 [label="Number_of_differnt_parties_voted_for <= -0.48\ngini = 0.559\nsamples = 47\nvalue = [0, 0, 0, 0, 29, 2, 0, 0, 0, 9, 0, 7, 0]\nclass = Khakis"] ;
277 -> 278 ;
279 [label="Political_interest_Total_Score <= -0.79\ngini = 0.403\nsamples = 37\nvalue = [0, 0, 0, 0, 28, 2, 0, 0, 0, 2, 0, 5, 0]\nclass = Khakis"] ;
278 -> 279 ;
280 [label="Yearly_IncomeK <= 0.923\ngini = 0.229\nsamples = 32\nvalue = [0, 0, 0, 0, 28, 1, 0, 0, 0, 1, 0, 2, 0]\nclass = Khakis"] ;
279 -> 280 ;
281 [label="Overall_happiness_score <= -0.121\ngini = 0.179\nsamples = 31\nvalue = [0, 0, 0, 0, 28, 0, 0, 0, 0, 1, 0, 2, 0]\nclass = Khakis"] ;
280 -> 281 ;
282 [label="Political_interest_Total_Score <= -0.963\ngini = 0.124\nsamples = 30\nvalue = [0, 0, 0, 0, 28, 0, 0, 0, 0, 0, 0, 2, 0]\nclass = Khakis"] ;
281 -> 282 ;
283 [label="gini = 0.0\nsamples = 1\nvalue = [0, 0, 0, 0, 0, 0, 0, 0, 0, 0, 0, 1, 0]\nclass = Whites"] ;
282 -> 283 ;
284 [label="Overall_happiness_score <= -0.352\ngini = 0.067\nsamples = 29\nvalue = [0, 0, 0, 0, 28, 0, 0, 0, 0, 0, 0, 1, 0]\nclass = Khakis"] ;
282 -> 284 ;
285 [label="gini = 0.375\nsamples = 4\nvalue = [0, 0, 0, 0, 3, 0, 0, 0, 0, 0, 0, 1, 0]\nclass = Khakis"] ;
284 -> 285 ;
286 [label="gini = 0.0\nsamples = 25\nvalue = [0, 0, 0, 0, 25, 0, 0, 0, 0, 0, 0, 0, 0]\nclass = Khakis"] ;
284 -> 286 ;
287 [label="gini = 0.0\nsamples = 1\nvalue = [0, 0, 0, 0, 0, 0, 0, 0, 0, 1, 0, 0, 0]\nclass = Turquoises"] ;
281 -> 287 ;
288 [label="gini = 0.0\nsamples = 1\nvalue = [0, 0, 0, 0, 0, 1, 0, 0, 0, 0, 0, 0, 0]\nclass = Oranges"] ;
280 -> 288 ;
289 [label="gini = 0.56\nsamples = 5\nvalue = [0, 0, 0, 0, 0, 1, 0, 0, 0, 1, 0, 3, 0]\nclass = Whites"] ;
279 -> 289 ;
290 [label="Most_Important_Issue_Environment <= 0.5\ngini = 0.46\nsamples = 10\nvalue = [0, 0, 0, 0, 1, 0, 0, 0, 0, 7, 0, 2, 0]\nclass = Turquoises"] ;
278 -> 290 ;
291 [label="Most_Important_Issue_Education <= 0.5\ngini = 0.219\nsamples = 8\nvalue = [0, 0, 0, 0, 1, 0, 0, 0, 0, 7, 0, 0, 0]\nclass = Turquoises"] ;
290 -> 291 ;
292 [label="gini = 0.0\nsamples = 7\nvalue = [0, 0, 0, 0, 0, 0, 0, 0, 0, 7, 0, 0, 0]\nclass = Turquoises"] ;
291 -> 292 ;
293 [label="gini = 0.0\nsamples = 1\nvalue = [0, 0, 0, 0, 1, 0, 0, 0, 0, 0, 0, 0, 0]\nclass = Khakis"] ;
291 -> 293 ;
294 [label="gini = 0.0\nsamples = 2\nvalue = [0, 0, 0, 0, 0, 0, 0, 0, 0, 0, 0, 2, 0]\nclass = Whites"] ;
290 -> 294 ;
295 [label="Overall_happiness_score <= -0.462\ngini = 0.071\nsamples = 83\nvalue = [0, 0, 0, 0, 1, 1, 0, 0, 0, 1, 0, 80, 0]\nclass = Whites"] ;
277 -> 295 ;
296 [label="gini = 0.5\nsamples = 2\nvalue = [0, 0, 0, 0, 0, 1, 0, 0, 0, 1, 0, 0, 0]\nclass = Oranges"] ;
295 -> 296 ;
297 [label="Political_interest_Total_Score <= -0.952\ngini = 0.024\nsamples = 81\nvalue = [0, 0, 0, 0, 1, 0, 0, 0, 0, 0, 0, 80, 0]\nclass = Whites"] ;
295 -> 297 ;
298 [label="gini = 0.375\nsamples = 4\nvalue = [0, 0, 0, 0, 1, 0, 0, 0, 0, 0, 0, 3, 0]\nclass = Whites"] ;
297 -> 298 ;
299 [label="gini = 0.0\nsamples = 77\nvalue = [0, 0, 0, 0, 0, 0, 0, 0, 0, 0, 0, 77, 0]\nclass = Whites"] ;
297 -> 299 ;
300 [label="Political_interest_Total_Score <= -0.78\ngini = 0.257\nsamples = 33\nvalue = [0, 0, 0, 28, 0, 5, 0, 0, 0, 0, 0, 0, 0]\nclass = Greys"] ;
276 -> 300 ;
301 [label="gini = 0.0\nsamples = 23\nvalue = [0, 0, 0, 23, 0, 0, 0, 0, 0, 0, 0, 0, 0]\nclass = Greys"] ;
300 -> 301 ;
302 [label="Weighted_education_rank <= 0.245\ngini = 0.5\nsamples = 10\nvalue = [0, 0, 0, 5, 0, 5, 0, 0, 0, 0, 0, 0, 0]\nclass = Greys"] ;
300 -> 302 ;
303 [label="gini = 0.0\nsamples = 4\nvalue = [0, 0, 0, 0, 0, 4, 0, 0, 0, 0, 0, 0, 0]\nclass = Oranges"] ;
302 -> 303 ;
304 [label="Number_of_differnt_parties_voted_for <= -0.854\ngini = 0.278\nsamples = 6\nvalue = [0, 0, 0, 5, 0, 1, 0, 0, 0, 0, 0, 0, 0]\nclass = Greys"] ;
302 -> 304 ;
305 [label="gini = 0.0\nsamples = 5\nvalue = [0, 0, 0, 5, 0, 0, 0, 0, 0, 0, 0, 0, 0]\nclass = Greys"] ;
304 -> 305 ;
306 [label="gini = 0.0\nsamples = 1\nvalue = [0, 0, 0, 0, 0, 1, 0, 0, 0, 0, 0, 0, 0]\nclass = Oranges"] ;
304 -> 306 ;
307 [label="gini = 0.0\nsamples = 38\nvalue = [0, 0, 0, 38, 0, 0, 0, 0, 0, 0, 0, 0, 0]\nclass = Greys"] ;
275 -> 307 ;
308 [label="Most_Important_Issue_Financial <= 0.5\ngini = 0.641\nsamples = 85\nvalue = [3, 3, 0, 3, 4, 47, 2, 1, 0, 1, 0, 3, 18]\nclass = Oranges"] ;
274 -> 308 ;
309 [label="Most_Important_Issue_Healthcare <= 0.5\ngini = 0.491\nsamples = 67\nvalue = [1, 1, 0, 3, 3, 47, 1, 1, 0, 1, 0, 2, 7]\nclass = Oranges"] ;
308 -> 309 ;
310 [label="Most_Important_Issue_Social <= 0.5\ngini = 0.378\nsamples = 60\nvalue = [1, 0, 0, 3, 3, 47, 1, 1, 0, 0, 0, 1, 3]\nclass = Oranges"] ;
309 -> 310 ;
311 [label="Avg_size_per_room <= 0.01\ngini = 0.236\nsamples = 54\nvalue = [0, 0, 0, 3, 3, 47, 0, 0, 0, 0, 0, 1, 0]\nclass = Oranges"] ;
310 -> 311 ;
312 [label="Most_Important_Issue_Education <= 0.5\ngini = 0.15\nsamples = 50\nvalue = [0, 0, 0, 0, 3, 46, 0, 0, 0, 0, 0, 1, 0]\nclass = Oranges"] ;
311 -> 312 ;
313 [label="Most_Important_Issue_Environment <= 0.5\ngini = 0.081\nsamples = 48\nvalue = [0, 0, 0, 0, 1, 46, 0, 0, 0, 0, 0, 1, 0]\nclass = Oranges"] ;
312 -> 313 ;
314 [label="gini = 0.0\nsamples = 46\nvalue = [0, 0, 0, 0, 0, 46, 0, 0, 0, 0, 0, 0, 0]\nclass = Oranges"] ;
313 -> 314 ;
315 [label="gini = 0.5\nsamples = 2\nvalue = [0, 0, 0, 0, 1, 0, 0, 0, 0, 0, 0, 1, 0]\nclass = Khakis"] ;
313 -> 315 ;
316 [label="gini = 0.0\nsamples = 2\nvalue = [0, 0, 0, 0, 2, 0, 0, 0, 0, 0, 0, 0, 0]\nclass = Khakis"] ;
312 -> 316 ;
317 [label="gini = 0.375\nsamples = 4\nvalue = [0, 0, 0, 3, 0, 1, 0, 0, 0, 0, 0, 0, 0]\nclass = Greys"] ;
311 -> 317 ;
318 [label="Avg_monthly_income_all_years <= -0.466\ngini = 0.667\nsamples = 6\nvalue = [1, 0, 0, 0, 0, 0, 1, 1, 0, 0, 0, 0, 3]\nclass = Yellows"] ;
310 -> 318 ;
319 [label="gini = 0.0\nsamples = 3\nvalue = [0, 0, 0, 0, 0, 0, 0, 0, 0, 0, 0, 0, 3]\nclass = Yellows"] ;
318 -> 319 ;
320 [label="gini = 0.667\nsamples = 3\nvalue = [1, 0, 0, 0, 0, 0, 1, 1, 0, 0, 0, 0, 0]\nclass = Blues"] ;
318 -> 320 ;
321 [label="Political_interest_Total_Score <= -0.225\ngini = 0.612\nsamples = 7\nvalue = [0, 1, 0, 0, 0, 0, 0, 0, 0, 1, 0, 1, 4]\nclass = Yellows"] ;
309 -> 321 ;
322 [label="gini = 0.32\nsamples = 5\nvalue = [0, 0, 0, 0, 0, 0, 0, 0, 0, 1, 0, 0, 4]\nclass = Yellows"] ;
321 -> 322 ;
323 [label="gini = 0.5\nsamples = 2\nvalue = [0, 1, 0, 0, 0, 0, 0, 0, 0, 0, 0, 1, 0]\nclass = Browns"] ;
321 -> 323 ;
324 [label="Avg_size_per_room <= -0.325\ngini = 0.593\nsamples = 18\nvalue = [2, 2, 0, 0, 1, 0, 1, 0, 0, 0, 0, 1, 11]\nclass = Yellows"] ;
308 -> 324 ;
325 [label="Avg_Satisfaction_with_previous_vote <= -0.266\ngini = 0.357\nsamples = 14\nvalue = [2, 0, 0, 0, 0, 0, 0, 0, 0, 0, 0, 1, 11]\nclass = Yellows"] ;
324 -> 325 ;
326 [label="gini = 0.5\nsamples = 2\nvalue = [1, 0, 0, 0, 0, 0, 0, 0, 0, 0, 0, 1, 0]\nclass = Blues"] ;
325 -> 326 ;
327 [label="Overall_happiness_score <= -0.85\ngini = 0.153\nsamples = 12\nvalue = [1, 0, 0, 0, 0, 0, 0, 0, 0, 0, 0, 0, 11]\nclass = Yellows"] ;
325 -> 327 ;
328 [label="gini = 0.0\nsamples = 1\nvalue = [1, 0, 0, 0, 0, 0, 0, 0, 0, 0, 0, 0, 0]\nclass = Blues"] ;
327 -> 328 ;
329 [label="gini = 0.0\nsamples = 11\nvalue = [0, 0, 0, 0, 0, 0, 0, 0, 0, 0, 0, 0, 11]\nclass = Yellows"] ;
327 -> 329 ;
330 [label="gini = 0.625\nsamples = 4\nvalue = [0, 2, 0, 0, 1, 0, 1, 0, 0, 0, 0, 0, 0]\nclass = Browns"] ;
324 -> 330 ;
331 [label="Political_interest_Total_Score <= -0.509\ngini = 0.645\nsamples = 429\nvalue = [5, 0, 0, 215, 7, 32, 132, 1, 0, 8, 1, 5, 23]\nclass = Greys"] ;
3 -> 331 ;
332 [label="Most_Important_Issue_Financial <= 0.5\ngini = 0.294\nsamples = 257\nvalue = [0, 0, 0, 215, 7, 12, 0, 0, 0, 8, 0, 5, 10]\nclass = Greys"] ;
331 -> 332 ;
333 [label="Weighted_education_rank <= -0.336\ngini = 0.22\nsamples = 244\nvalue = [0, 0, 0, 215, 5, 12, 0, 0, 0, 3, 0, 5, 4]\nclass = Greys"] ;
332 -> 333 ;
334 [label="Yearly_IncomeK <= -0.58\ngini = 0.219\nsamples = 8\nvalue = [0, 0, 0, 1, 0, 7, 0, 0, 0, 0, 0, 0, 0]\nclass = Oranges"] ;
333 -> 334 ;
335 [label="gini = 0.0\nsamples = 1\nvalue = [0, 0, 0, 1, 0, 0, 0, 0, 0, 0, 0, 0, 0]\nclass = Greys"] ;
334 -> 335 ;
336 [label="gini = 0.0\nsamples = 7\nvalue = [0, 0, 0, 0, 0, 7, 0, 0, 0, 0, 0, 0, 0]\nclass = Oranges"] ;
334 -> 336 ;
337 [label="Most_Important_Issue_Environment <= 0.5\ngini = 0.176\nsamples = 236\nvalue = [0, 0, 0, 214, 5, 5, 0, 0, 0, 3, 0, 5, 4]\nclass = Greys"] ;
333 -> 337 ;
338 [label="Most_Important_Issue_Social <= 0.5\ngini = 0.141\nsamples = 231\nvalue = [0, 0, 0, 214, 3, 5, 0, 0, 0, 3, 0, 2, 4]\nclass = Greys"] ;
337 -> 338 ;
339 [label="Most_Important_Issue_Healthcare <= 0.5\ngini = 0.103\nsamples = 226\nvalue = [0, 0, 0, 214, 2, 5, 0, 0, 0, 2, 0, 2, 1]\nclass = Greys"] ;
338 -> 339 ;
340 [label="Overall_happiness_score <= -0.679\ngini = 0.062\nsamples = 221\nvalue = [0, 0, 0, 214, 2, 5, 0, 0, 0, 0, 0, 0, 0]\nclass = Greys"] ;
339 -> 340 ;
341 [label="gini = 0.0\nsamples = 2\nvalue = [0, 0, 0, 0, 0, 2, 0, 0, 0, 0, 0, 0, 0]\nclass = Oranges"] ;
340 -> 341 ;
342 [label="Avg_Satisfaction_with_previous_vote <= -1.394\ngini = 0.045\nsamples = 219\nvalue = [0, 0, 0, 214, 2, 3, 0, 0, 0, 0, 0, 0, 0]\nclass = Greys"] ;
340 -> 342 ;
343 [label="gini = 0.0\nsamples = 1\nvalue = [0, 0, 0, 0, 1, 0, 0, 0, 0, 0, 0, 0, 0]\nclass = Khakis"] ;
342 -> 343 ;
344 [label="Most_Important_Issue_Other <= 0.5\ngini = 0.036\nsamples = 218\nvalue = [0, 0, 0, 214, 1, 3, 0, 0, 0, 0, 0, 0, 0]\nclass = Greys"] ;
342 -> 344 ;
345 [label="Political_interest_Total_Score <= -1.296\ngini = 0.027\nsamples = 217\nvalue = [0, 0, 0, 214, 1, 2, 0, 0, 0, 0, 0, 0, 0]\nclass = Greys"] ;
344 -> 345 ;
346 [label="gini = 0.444\nsamples = 3\nvalue = [0, 0, 0, 2, 1, 0, 0, 0, 0, 0, 0, 0, 0]\nclass = Greys"] ;
345 -> 346 ;
347 [label="Weighted_education_rank <= 0.006\ngini = 0.019\nsamples = 214\nvalue = [0, 0, 0, 212, 0, 2, 0, 0, 0, 0, 0, 0, 0]\nclass = Greys"] ;
345 -> 347 ;
348 [label="Weighted_education_rank <= 0.001\ngini = 0.091\nsamples = 42\nvalue = [0, 0, 0, 40, 0, 2, 0, 0, 0, 0, 0, 0, 0]\nclass = Greys"] ;
347 -> 348 ;
349 [label="Overall_happiness_score <= -0.464\ngini = 0.048\nsamples = 41\nvalue = [0, 0, 0, 40, 0, 1, 0, 0, 0, 0, 0, 0, 0]\nclass = Greys"] ;
348 -> 349 ;
350 [label="gini = 0.5\nsamples = 2\nvalue = [0, 0, 0, 1, 0, 1, 0, 0, 0, 0, 0, 0, 0]\nclass = Greys"] ;
349 -> 350 ;
351 [label="gini = 0.0\nsamples = 39\nvalue = [0, 0, 0, 39, 0, 0, 0, 0, 0, 0, 0, 0, 0]\nclass = Greys"] ;
349 -> 351 ;
352 [label="gini = 0.0\nsamples = 1\nvalue = [0, 0, 0, 0, 0, 1, 0, 0, 0, 0, 0, 0, 0]\nclass = Oranges"] ;
348 -> 352 ;
353 [label="gini = 0.0\nsamples = 172\nvalue = [0, 0, 0, 172, 0, 0, 0, 0, 0, 0, 0, 0, 0]\nclass = Greys"] ;
347 -> 353 ;
354 [label="gini = 0.0\nsamples = 1\nvalue = [0, 0, 0, 0, 0, 1, 0, 0, 0, 0, 0, 0, 0]\nclass = Oranges"] ;
344 -> 354 ;
355 [label="gini = 0.64\nsamples = 5\nvalue = [0, 0, 0, 0, 0, 0, 0, 0, 0, 2, 0, 2, 1]\nclass = Turquoises"] ;
339 -> 355 ;
356 [label="gini = 0.56\nsamples = 5\nvalue = [0, 0, 0, 0, 1, 0, 0, 0, 0, 1, 0, 0, 3]\nclass = Yellows"] ;
338 -> 356 ;
357 [label="gini = 0.48\nsamples = 5\nvalue = [0, 0, 0, 0, 2, 0, 0, 0, 0, 0, 0, 3, 0]\nclass = Whites"] ;
337 -> 357 ;
358 [label="Yearly_IncomeK <= -0.102\ngini = 0.615\nsamples = 13\nvalue = [0, 0, 0, 0, 2, 0, 0, 0, 0, 5, 0, 0, 6]\nclass = Yellows"] ;
332 -> 358 ;
359 [label="Weighted_education_rank <= 0.12\ngini = 0.408\nsamples = 7\nvalue = [0, 0, 0, 0, 2, 0, 0, 0, 0, 5, 0, 0, 0]\nclass = Turquoises"] ;
358 -> 359 ;
360 [label="gini = 0.0\nsamples = 5\nvalue = [0, 0, 0, 0, 0, 0, 0, 0, 0, 5, 0, 0, 0]\nclass = Turquoises"] ;
359 -> 360 ;
361 [label="gini = 0.0\nsamples = 2\nvalue = [0, 0, 0, 0, 2, 0, 0, 0, 0, 0, 0, 0, 0]\nclass = Khakis"] ;
359 -> 361 ;
362 [label="gini = 0.0\nsamples = 6\nvalue = [0, 0, 0, 0, 0, 0, 0, 0, 0, 0, 0, 0, 6]\nclass = Yellows"] ;
358 -> 362 ;
363 [label="Weighted_education_rank <= 0.799\ngini = 0.391\nsamples = 172\nvalue = [5, 0, 0, 0, 0, 20, 132, 1, 0, 0, 1, 0, 13]\nclass = Pinks"] ;
331 -> 363 ;
364 [label="Most_Important_Issue_Financial <= 0.5\ngini = 0.65\nsamples = 41\nvalue = [3, 0, 0, 0, 0, 20, 3, 1, 0, 0, 1, 0, 13]\nclass = Oranges"] ;
363 -> 364 ;
365 [label="Avg_Satisfaction_with_previous_vote <= 0.798\ngini = 0.504\nsamples = 30\nvalue = [0, 0, 0, 0, 0, 20, 3, 0, 0, 0, 1, 0, 6]\nclass = Oranges"] ;
364 -> 365 ;
366 [label="Most_Important_Issue_Healthcare <= 0.5\ngini = 0.339\nsamples = 25\nvalue = [0, 0, 0, 0, 0, 20, 3, 0, 0, 0, 0, 0, 2]\nclass = Oranges"] ;
365 -> 366 ;
367 [label="Avg_size_per_room <= 1.078\ngini = 0.091\nsamples = 21\nvalue = [0, 0, 0, 0, 0, 20, 1, 0, 0, 0, 0, 0, 0]\nclass = Oranges"] ;
366 -> 367 ;
368 [label="gini = 0.0\nsamples = 20\nvalue = [0, 0, 0, 0, 0, 20, 0, 0, 0, 0, 0, 0, 0]\nclass = Oranges"] ;
367 -> 368 ;
369 [label="gini = 0.0\nsamples = 1\nvalue = [0, 0, 0, 0, 0, 0, 1, 0, 0, 0, 0, 0, 0]\nclass = Pinks"] ;
367 -> 369 ;
370 [label="gini = 0.5\nsamples = 4\nvalue = [0, 0, 0, 0, 0, 0, 2, 0, 0, 0, 0, 0, 2]\nclass = Pinks"] ;
366 -> 370 ;
371 [label="gini = 0.32\nsamples = 5\nvalue = [0, 0, 0, 0, 0, 0, 0, 0, 0, 0, 1, 0, 4]\nclass = Yellows"] ;
365 -> 371 ;
372 [label="Avg_size_per_room <= 0.815\ngini = 0.512\nsamples = 11\nvalue = [3, 0, 0, 0, 0, 0, 0, 1, 0, 0, 0, 0, 7]\nclass = Yellows"] ;
364 -> 372 ;
373 [label="Weighted_education_rank <= -0.098\ngini = 0.219\nsamples = 8\nvalue = [0, 0, 0, 0, 0, 0, 0, 1, 0, 0, 0, 0, 7]\nclass = Yellows"] ;
372 -> 373 ;
374 [label="gini = 0.0\nsamples = 7\nvalue = [0, 0, 0, 0, 0, 0, 0, 0, 0, 0, 0, 0, 7]\nclass = Yellows"] ;
373 -> 374 ;
375 [label="gini = 0.0\nsamples = 1\nvalue = [0, 0, 0, 0, 0, 0, 0, 1, 0, 0, 0, 0, 0]\nclass = Purples"] ;
373 -> 375 ;
376 [label="gini = 0.0\nsamples = 3\nvalue = [3, 0, 0, 0, 0, 0, 0, 0, 0, 0, 0, 0, 0]\nclass = Blues"] ;
372 -> 376 ;
377 [label="Avg_monthly_income_all_years <= 1.73\ngini = 0.03\nsamples = 131\nvalue = [2, 0, 0, 0, 0, 0, 129, 0, 0, 0, 0, 0, 0]\nclass = Pinks"] ;
363 -> 377 ;
378 [label="gini = 0.0\nsamples = 129\nvalue = [0, 0, 0, 0, 0, 0, 129, 0, 0, 0, 0, 0, 0]\nclass = Pinks"] ;
377 -> 378 ;
379 [label="gini = 0.0\nsamples = 2\nvalue = [2, 0, 0, 0, 0, 0, 0, 0, 0, 0, 0, 0, 0]\nclass = Blues"] ;
377 -> 379 ;
380 [label="Political_interest_Total_Score <= -0.538\ngini = 0.773\nsamples = 992\nvalue = [8, 6, 101, 0, 0, 110, 51, 4, 402, 150, 2, 111\n47]\nclass = Reds"] ;
2 -> 380 ;
381 [label="Most_Important_Issue_Financial <= 0.5\ngini = 0.502\nsamples = 605\nvalue = [2, 1, 0, 0, 0, 15, 2, 1, 400, 145, 0, 26, 13]\nclass = Reds"] ;
380 -> 381 ;
382 [label="Most_Important_Issue_Social <= 0.5\ngini = 0.374\nsamples = 514\nvalue = [0, 0, 0, 0, 0, 15, 1, 0, 400, 69, 0, 21, 8]\nclass = Reds"] ;
381 -> 382 ;
383 [label="Most_Important_Issue_Healthcare <= 0.5\ngini = 0.226\nsamples = 456\nvalue = [0, 0, 0, 0, 0, 15, 1, 0, 400, 22, 0, 15, 3]\nclass = Reds"] ;
382 -> 383 ;
384 [label="Most_Important_Issue_Military <= 0.5\ngini = 0.129\nsamples = 429\nvalue = [0, 0, 0, 0, 0, 15, 0, 0, 400, 3, 0, 11, 0]\nclass = Reds"] ;
383 -> 384 ;
385 [label="Most_Important_Issue_Environment <= 0.5\ngini = 0.083\nsamples = 418\nvalue = [0, 0, 0, 0, 0, 4, 0, 0, 400, 3, 0, 11, 0]\nclass = Reds"] ;
384 -> 385 ;
386 [label="Most_Important_Issue_Education <= 0.5\ngini = 0.053\nsamples = 411\nvalue = [0, 0, 0, 0, 0, 4, 0, 0, 400, 3, 0, 4, 0]\nclass = Reds"] ;
385 -> 386 ;
387 [label="Avg_size_per_room <= -0.506\ngini = 0.034\nsamples = 407\nvalue = [0, 0, 0, 0, 0, 4, 0, 0, 400, 2, 0, 1, 0]\nclass = Reds"] ;
386 -> 387 ;
388 [label="gini = 0.444\nsamples = 3\nvalue = [0, 0, 0, 0, 0, 2, 0, 0, 0, 1, 0, 0, 0]\nclass = Oranges"] ;
387 -> 388 ;
389 [label="Avg_Satisfaction_with_previous_vote <= -1.37\ngini = 0.02\nsamples = 404\nvalue = [0, 0, 0, 0, 0, 2, 0, 0, 400, 1, 0, 1, 0]\nclass = Reds"] ;
387 -> 389 ;
390 [label="gini = 0.0\nsamples = 1\nvalue = [0, 0, 0, 0, 0, 0, 0, 0, 0, 1, 0, 0, 0]\nclass = Turquoises"] ;
389 -> 390 ;
391 [label="Avg_size_per_room <= -0.386\ngini = 0.015\nsamples = 403\nvalue = [0, 0, 0, 0, 0, 2, 0, 0, 400, 0, 0, 1, 0]\nclass = Reds"] ;
389 -> 391 ;
392 [label="Political_interest_Total_Score <= -0.628\ngini = 0.172\nsamples = 21\nvalue = [0, 0, 0, 0, 0, 2, 0, 0, 19, 0, 0, 0, 0]\nclass = Reds"] ;
391 -> 392 ;
393 [label="gini = 0.0\nsamples = 19\nvalue = [0, 0, 0, 0, 0, 0, 0, 0, 19, 0, 0, 0, 0]\nclass = Reds"] ;
392 -> 393 ;
394 [label="gini = 0.0\nsamples = 2\nvalue = [0, 0, 0, 0, 0, 2, 0, 0, 0, 0, 0, 0, 0]\nclass = Oranges"] ;
392 -> 394 ;
395 [label="Political_interest_Total_Score <= -1.145\ngini = 0.005\nsamples = 382\nvalue = [0, 0, 0, 0, 0, 0, 0, 0, 381, 0, 0, 1, 0]\nclass = Reds"] ;
391 -> 395 ;
396 [label="Avg_size_per_room <= -0.026\ngini = 0.245\nsamples = 7\nvalue = [0, 0, 0, 0, 0, 0, 0, 0, 6, 0, 0, 1, 0]\nclass = Reds"] ;
395 -> 396 ;
397 [label="gini = 0.0\nsamples = 1\nvalue = [0, 0, 0, 0, 0, 0, 0, 0, 0, 0, 0, 1, 0]\nclass = Whites"] ;
396 -> 397 ;
398 [label="gini = 0.0\nsamples = 6\nvalue = [0, 0, 0, 0, 0, 0, 0, 0, 6, 0, 0, 0, 0]\nclass = Reds"] ;
396 -> 398 ;
399 [label="gini = 0.0\nsamples = 375\nvalue = [0, 0, 0, 0, 0, 0, 0, 0, 375, 0, 0, 0, 0]\nclass = Reds"] ;
395 -> 399 ;
400 [label="gini = 0.375\nsamples = 4\nvalue = [0, 0, 0, 0, 0, 0, 0, 0, 0, 1, 0, 3, 0]\nclass = Whites"] ;
386 -> 400 ;
401 [label="gini = 0.0\nsamples = 7\nvalue = [0, 0, 0, 0, 0, 0, 0, 0, 0, 0, 0, 7, 0]\nclass = Whites"] ;
385 -> 401 ;
402 [label="gini = 0.0\nsamples = 11\nvalue = [0, 0, 0, 0, 0, 11, 0, 0, 0, 0, 0, 0, 0]\nclass = Oranges"] ;
384 -> 402 ;
403 [label="Weighted_education_rank <= 0.127\ngini = 0.469\nsamples = 27\nvalue = [0, 0, 0, 0, 0, 0, 1, 0, 0, 19, 0, 4, 3]\nclass = Turquoises"] ;
383 -> 403 ;
404 [label="Number_of_differnt_parties_voted_for <= -0.854\ngini = 0.1\nsamples = 19\nvalue = [0, 0, 0, 0, 0, 0, 1, 0, 0, 18, 0, 0, 0]\nclass = Turquoises"] ;
403 -> 404 ;
405 [label="gini = 0.0\nsamples = 1\nvalue = [0, 0, 0, 0, 0, 0, 1, 0, 0, 0, 0, 0, 0]\nclass = Pinks"] ;
404 -> 405 ;
406 [label="gini = 0.0\nsamples = 18\nvalue = [0, 0, 0, 0, 0, 0, 0, 0, 0, 18, 0, 0, 0]\nclass = Turquoises"] ;
404 -> 406 ;
407 [label="Number_of_differnt_parties_voted_for <= -0.48\ngini = 0.594\nsamples = 8\nvalue = [0, 0, 0, 0, 0, 0, 0, 0, 0, 1, 0, 4, 3]\nclass = Whites"] ;
403 -> 407 ;
408 [label="gini = 0.0\nsamples = 4\nvalue = [0, 0, 0, 0, 0, 0, 0, 0, 0, 0, 0, 4, 0]\nclass = Whites"] ;
407 -> 408 ;
409 [label="gini = 0.375\nsamples = 4\nvalue = [0, 0, 0, 0, 0, 0, 0, 0, 0, 1, 0, 0, 3]\nclass = Yellows"] ;
407 -> 409 ;
410 [label="Weighted_education_rank <= 0.179\ngini = 0.325\nsamples = 58\nvalue = [0, 0, 0, 0, 0, 0, 0, 0, 0, 47, 0, 6, 5]\nclass = Turquoises"] ;
382 -> 410 ;
411 [label="Political_interest_Total_Score <= -1.193\ngini = 0.041\nsamples = 48\nvalue = [0, 0, 0, 0, 0, 0, 0, 0, 0, 47, 0, 1, 0]\nclass = Turquoises"] ;
410 -> 411 ;
412 [label="gini = 0.0\nsamples = 1\nvalue = [0, 0, 0, 0, 0, 0, 0, 0, 0, 0, 0, 1, 0]\nclass = Whites"] ;
411 -> 412 ;
413 [label="gini = 0.0\nsamples = 47\nvalue = [0, 0, 0, 0, 0, 0, 0, 0, 0, 47, 0, 0, 0]\nclass = Turquoises"] ;
411 -> 413 ;
414 [label="Overall_happiness_score <= 0.293\ngini = 0.5\nsamples = 10\nvalue = [0, 0, 0, 0, 0, 0, 0, 0, 0, 0, 0, 5, 5]\nclass = Whites"] ;
410 -> 414 ;
415 [label="gini = 0.0\nsamples = 5\nvalue = [0, 0, 0, 0, 0, 0, 0, 0, 0, 0, 0, 5, 0]\nclass = Whites"] ;
414 -> 415 ;
416 [label="gini = 0.0\nsamples = 5\nvalue = [0, 0, 0, 0, 0, 0, 0, 0, 0, 0, 0, 0, 5]\nclass = Yellows"] ;
414 -> 416 ;
417 [label="Weighted_education_rank <= 0.23\ngini = 0.296\nsamples = 91\nvalue = [2, 1, 0, 0, 0, 0, 1, 1, 0, 76, 0, 5, 5]\nclass = Turquoises"] ;
381 -> 417 ;
418 [label="Number_of_differnt_parties_voted_for <= -1.227\ngini = 0.075\nsamples = 78\nvalue = [1, 0, 0, 0, 0, 0, 1, 0, 0, 75, 0, 1, 0]\nclass = Turquoises"] ;
417 -> 418 ;
419 [label="gini = 0.5\nsamples = 2\nvalue = [0, 0, 0, 0, 0, 0, 1, 0, 0, 0, 0, 1, 0]\nclass = Pinks"] ;
418 -> 419 ;
420 [label="Avg_monthly_income_all_years <= 1.945\ngini = 0.026\nsamples = 76\nvalue = [1, 0, 0, 0, 0, 0, 0, 0, 0, 75, 0, 0, 0]\nclass = Turquoises"] ;
418 -> 420 ;
421 [label="gini = 0.0\nsamples = 75\nvalue = [0, 0, 0, 0, 0, 0, 0, 0, 0, 75, 0, 0, 0]\nclass = Turquoises"] ;
420 -> 421 ;
422 [label="gini = 0.0\nsamples = 1\nvalue = [1, 0, 0, 0, 0, 0, 0, 0, 0, 0, 0, 0, 0]\nclass = Blues"] ;
420 -> 422 ;
423 [label="Number_of_differnt_parties_voted_for <= -1.227\ngini = 0.734\nsamples = 13\nvalue = [1, 1, 0, 0, 0, 0, 0, 1, 0, 1, 0, 4, 5]\nclass = Yellows"] ;
417 -> 423 ;
424 [label="gini = 0.0\nsamples = 4\nvalue = [0, 0, 0, 0, 0, 0, 0, 0, 0, 0, 0, 4, 0]\nclass = Whites"] ;
423 -> 424 ;
425 [label="Overall_happiness_score <= 0.265\ngini = 0.642\nsamples = 9\nvalue = [1, 1, 0, 0, 0, 0, 0, 1, 0, 1, 0, 0, 5]\nclass = Yellows"] ;
423 -> 425 ;
426 [label="gini = 0.5\nsamples = 2\nvalue = [1, 0, 0, 0, 0, 0, 0, 0, 0, 1, 0, 0, 0]\nclass = Blues"] ;
425 -> 426 ;
427 [label="Weighted_education_rank <= 0.633\ngini = 0.449\nsamples = 7\nvalue = [0, 1, 0, 0, 0, 0, 0, 1, 0, 0, 0, 0, 5]\nclass = Yellows"] ;
425 -> 427 ;
428 [label="Avg_Satisfaction_with_previous_vote <= 1.657\ngini = 0.278\nsamples = 6\nvalue = [0, 0, 0, 0, 0, 0, 0, 1, 0, 0, 0, 0, 5]\nclass = Yellows"] ;
427 -> 428 ;
429 [label="gini = 0.0\nsamples = 5\nvalue = [0, 0, 0, 0, 0, 0, 0, 0, 0, 0, 0, 0, 5]\nclass = Yellows"] ;
428 -> 429 ;
430 [label="gini = 0.0\nsamples = 1\nvalue = [0, 0, 0, 0, 0, 0, 0, 1, 0, 0, 0, 0, 0]\nclass = Purples"] ;
428 -> 430 ;
431 [label="gini = 0.0\nsamples = 1\nvalue = [0, 1, 0, 0, 0, 0, 0, 0, 0, 0, 0, 0, 0]\nclass = Browns"] ;
427 -> 431 ;
432 [label="Overall_happiness_score <= 0.321\ngini = 0.799\nsamples = 387\nvalue = [6, 5, 101, 0, 0, 95, 49, 3, 2, 5, 2, 85, 34]\nclass = Greens"] ;
380 -> 432 ;
433 [label="Avg_size_per_room <= -0.606\ngini = 0.61\nsamples = 152\nvalue = [3, 1, 0, 0, 0, 18, 40, 0, 0, 4, 2, 84, 0]\nclass = Whites"] ;
432 -> 433 ;
434 [label="Weighted_education_rank <= -0.451\ngini = 0.274\nsamples = 96\nvalue = [1, 0, 0, 0, 0, 11, 2, 0, 0, 1, 0, 81, 0]\nclass = Whites"] ;
433 -> 434 ;
435 [label="Weighted_education_rank <= -0.788\ngini = 0.048\nsamples = 81\nvalue = [0, 0, 0, 0, 0, 0, 2, 0, 0, 0, 0, 79, 0]\nclass = Whites"] ;
434 -> 435 ;
436 [label="gini = 0.0\nsamples = 2\nvalue = [0, 0, 0, 0, 0, 0, 2, 0, 0, 0, 0, 0, 0]\nclass = Pinks"] ;
435 -> 436 ;
437 [label="gini = 0.0\nsamples = 79\nvalue = [0, 0, 0, 0, 0, 0, 0, 0, 0, 0, 0, 79, 0]\nclass = Whites"] ;
435 -> 437 ;
438 [label="Avg_Satisfaction_with_previous_vote <= -1.145\ngini = 0.436\nsamples = 15\nvalue = [1, 0, 0, 0, 0, 11, 0, 0, 0, 1, 0, 2, 0]\nclass = Oranges"] ;
434 -> 438 ;
439 [label="gini = 0.444\nsamples = 3\nvalue = [0, 0, 0, 0, 0, 0, 0, 0, 0, 1, 0, 2, 0]\nclass = Whites"] ;
438 -> 439 ;
440 [label="Most_Important_Issue_Social <= 0.5\ngini = 0.153\nsamples = 12\nvalue = [1, 0, 0, 0, 0, 11, 0, 0, 0, 0, 0, 0, 0]\nclass = Oranges"] ;
438 -> 440 ;
441 [label="gini = 0.0\nsamples = 11\nvalue = [0, 0, 0, 0, 0, 11, 0, 0, 0, 0, 0, 0, 0]\nclass = Oranges"] ;
440 -> 441 ;
442 [label="gini = 0.0\nsamples = 1\nvalue = [1, 0, 0, 0, 0, 0, 0, 0, 0, 0, 0, 0, 0]\nclass = Blues"] ;
440 -> 442 ;
443 [label="Most_Important_Issue_Military <= 0.5\ngini = 0.515\nsamples = 56\nvalue = [2, 1, 0, 0, 0, 7, 38, 0, 0, 3, 2, 3, 0]\nclass = Pinks"] ;
433 -> 443 ;
444 [label="Most_Important_Issue_Other <= 0.5\ngini = 0.453\nsamples = 52\nvalue = [2, 1, 0, 0, 0, 3, 38, 0, 0, 3, 2, 3, 0]\nclass = Pinks"] ;
443 -> 444 ;
445 [label="Avg_Satisfaction_with_previous_vote <= 0.559\ngini = 0.387\nsamples = 49\nvalue = [2, 1, 0, 0, 0, 0, 38, 0, 0, 3, 2, 3, 0]\nclass = Pinks"] ;
444 -> 445 ;
446 [label="Avg_size_per_room <= 1.107\ngini = 0.278\nsamples = 45\nvalue = [1, 0, 0, 0, 0, 0, 38, 0, 0, 3, 0, 3, 0]\nclass = Pinks"] ;
445 -> 446 ;
447 [label="Number_of_differnt_parties_voted_for <= -0.48\ngini = 0.245\nsamples = 44\nvalue = [0, 0, 0, 0, 0, 0, 38, 0, 0, 3, 0, 3, 0]\nclass = Pinks"] ;
446 -> 447 ;
448 [label="Yearly_IncomeK <= 0.874\ngini = 0.152\nsamples = 37\nvalue = [0, 0, 0, 0, 0, 0, 34, 0, 0, 1, 0, 2, 0]\nclass = Pinks"] ;
447 -> 448 ;
449 [label="Overall_happiness_score <= 0.297\ngini = 0.061\nsamples = 32\nvalue = [0, 0, 0, 0, 0, 0, 31, 0, 0, 1, 0, 0, 0]\nclass = Pinks"] ;
448 -> 449 ;
450 [label="gini = 0.0\nsamples = 30\nvalue = [0, 0, 0, 0, 0, 0, 30, 0, 0, 0, 0, 0, 0]\nclass = Pinks"] ;
449 -> 450 ;
451 [label="gini = 0.5\nsamples = 2\nvalue = [0, 0, 0, 0, 0, 0, 1, 0, 0, 1, 0, 0, 0]\nclass = Pinks"] ;
449 -> 451 ;
452 [label="gini = 0.48\nsamples = 5\nvalue = [0, 0, 0, 0, 0, 0, 3, 0, 0, 0, 0, 2, 0]\nclass = Pinks"] ;
448 -> 452 ;
453 [label="Political_interest_Total_Score <= -0.435\ngini = 0.571\nsamples = 7\nvalue = [0, 0, 0, 0, 0, 0, 4, 0, 0, 2, 0, 1, 0]\nclass = Pinks"] ;
447 -> 453 ;
454 [label="gini = 0.0\nsamples = 2\nvalue = [0, 0, 0, 0, 0, 0, 0, 0, 0, 2, 0, 0, 0]\nclass = Turquoises"] ;
453 -> 454 ;
455 [label="gini = 0.32\nsamples = 5\nvalue = [0, 0, 0, 0, 0, 0, 4, 0, 0, 0, 0, 1, 0]\nclass = Pinks"] ;
453 -> 455 ;
456 [label="gini = 0.0\nsamples = 1\nvalue = [1, 0, 0, 0, 0, 0, 0, 0, 0, 0, 0, 0, 0]\nclass = Blues"] ;
446 -> 456 ;
457 [label="gini = 0.625\nsamples = 4\nvalue = [1, 1, 0, 0, 0, 0, 0, 0, 0, 0, 2, 0, 0]\nclass = Violets"] ;
445 -> 457 ;
458 [label="gini = 0.0\nsamples = 3\nvalue = [0, 0, 0, 0, 0, 3, 0, 0, 0, 0, 0, 0, 0]\nclass = Oranges"] ;
444 -> 458 ;
459 [label="gini = 0.0\nsamples = 4\nvalue = [0, 0, 0, 0, 0, 4, 0, 0, 0, 0, 0, 0, 0]\nclass = Oranges"] ;
443 -> 459 ;
460 [label="Weighted_education_rank <= -0.48\ngini = 0.685\nsamples = 235\nvalue = [3, 4, 101, 0, 0, 77, 9, 3, 2, 1, 0, 1, 34]\nclass = Greens"] ;
432 -> 460 ;
461 [label="Overall_happiness_score <= 0.532\ngini = 0.479\nsamples = 144\nvalue = [0, 0, 100, 0, 0, 16, 4, 0, 0, 1, 0, 0, 23]\nclass = Greens"] ;
460 -> 461 ;
462 [label="Avg_Satisfaction_with_previous_vote <= -0.617\ngini = 0.698\nsamples = 43\nvalue = [0, 0, 13, 0, 0, 7, 4, 0, 0, 1, 0, 0, 18]\nclass = Yellows"] ;
461 -> 462 ;
463 [label="Weighted_education_rank <= -0.658\ngini = 0.555\nsamples = 16\nvalue = [0, 0, 10, 0, 0, 2, 3, 0, 0, 1, 0, 0, 0]\nclass = Greens"] ;
462 -> 463 ;
464 [label="Political_interest_Total_Score <= -0.139\ngini = 0.165\nsamples = 11\nvalue = [0, 0, 10, 0, 0, 1, 0, 0, 0, 0, 0, 0, 0]\nclass = Greens"] ;
463 -> 464 ;
465 [label="gini = 0.0\nsamples = 10\nvalue = [0, 0, 10, 0, 0, 0, 0, 0, 0, 0, 0, 0, 0]\nclass = Greens"] ;
464 -> 465 ;
466 [label="gini = 0.0\nsamples = 1\nvalue = [0, 0, 0, 0, 0, 1, 0, 0, 0, 0, 0, 0, 0]\nclass = Oranges"] ;
464 -> 466 ;
467 [label="gini = 0.56\nsamples = 5\nvalue = [0, 0, 0, 0, 0, 1, 3, 0, 0, 1, 0, 0, 0]\nclass = Pinks"] ;
463 -> 467 ;
468 [label="Most_Important_Issue_Military <= 0.5\ngini = 0.508\nsamples = 27\nvalue = [0, 0, 3, 0, 0, 5, 1, 0, 0, 0, 0, 0, 18]\nclass = Yellows"] ;
462 -> 468 ;
469 [label="Avg_monthly_income_all_years <= -1.003\ngini = 0.367\nsamples = 23\nvalue = [0, 0, 3, 0, 0, 1, 1, 0, 0, 0, 0, 0, 18]\nclass = Yellows"] ;
468 -> 469 ;
470 [label="gini = 0.0\nsamples = 13\nvalue = [0, 0, 0, 0, 0, 0, 0, 0, 0, 0, 0, 0, 13]\nclass = Yellows"] ;
469 -> 470 ;
471 [label="Political_interest_Total_Score <= -0.155\ngini = 0.64\nsamples = 10\nvalue = [0, 0, 3, 0, 0, 1, 1, 0, 0, 0, 0, 0, 5]\nclass = Yellows"] ;
469 -> 471 ;
472 [label="gini = 0.56\nsamples = 5\nvalue = [0, 0, 3, 0, 0, 1, 1, 0, 0, 0, 0, 0, 0]\nclass = Greens"] ;
471 -> 472 ;
473 [label="gini = 0.0\nsamples = 5\nvalue = [0, 0, 0, 0, 0, 0, 0, 0, 0, 0, 0, 0, 5]\nclass = Yellows"] ;
471 -> 473 ;
474 [label="gini = 0.0\nsamples = 4\nvalue = [0, 0, 0, 0, 0, 4, 0, 0, 0, 0, 0, 0, 0]\nclass = Oranges"] ;
468 -> 474 ;
475 [label="Most_Important_Issue_Other <= 0.5\ngini = 0.248\nsamples = 101\nvalue = [0, 0, 87, 0, 0, 9, 0, 0, 0, 0, 0, 0, 5]\nclass = Greens"] ;
461 -> 475 ;
476 [label="Most_Important_Issue_Military <= 0.5\ngini = 0.174\nsamples = 96\nvalue = [0, 0, 87, 0, 0, 4, 0, 0, 0, 0, 0, 0, 5]\nclass = Greens"] ;
475 -> 476 ;
477 [label="Avg_size_per_room <= 0.417\ngini = 0.103\nsamples = 92\nvalue = [0, 0, 87, 0, 0, 0, 0, 0, 0, 0, 0, 0, 5]\nclass = Greens"] ;
476 -> 477 ;
478 [label="Avg_monthly_income_all_years <= 1.695\ngini = 0.044\nsamples = 88\nvalue = [0, 0, 86, 0, 0, 0, 0, 0, 0, 0, 0, 0, 2]\nclass = Greens"] ;
477 -> 478 ;
479 [label="gini = 0.0\nsamples = 86\nvalue = [0, 0, 86, 0, 0, 0, 0, 0, 0, 0, 0, 0, 0]\nclass = Greens"] ;
478 -> 479 ;
480 [label="gini = 0.0\nsamples = 2\nvalue = [0, 0, 0, 0, 0, 0, 0, 0, 0, 0, 0, 0, 2]\nclass = Yellows"] ;
478 -> 480 ;
481 [label="gini = 0.375\nsamples = 4\nvalue = [0, 0, 1, 0, 0, 0, 0, 0, 0, 0, 0, 0, 3]\nclass = Yellows"] ;
477 -> 481 ;
482 [label="gini = 0.0\nsamples = 4\nvalue = [0, 0, 0, 0, 0, 4, 0, 0, 0, 0, 0, 0, 0]\nclass = Oranges"] ;
476 -> 482 ;
483 [label="gini = 0.0\nsamples = 5\nvalue = [0, 0, 0, 0, 0, 5, 0, 0, 0, 0, 0, 0, 0]\nclass = Oranges"] ;
475 -> 483 ;
484 [label="Most_Important_Issue_Military <= 0.5\ngini = 0.528\nsamples = 91\nvalue = [3, 4, 1, 0, 0, 61, 5, 3, 2, 0, 0, 1, 11]\nclass = Oranges"] ;
460 -> 484 ;
485 [label="Most_Important_Issue_Other <= 0.5\ngini = 0.725\nsamples = 56\nvalue = [3, 4, 1, 0, 0, 26, 5, 3, 2, 0, 0, 1, 11]\nclass = Oranges"] ;
484 -> 485 ;
486 [label="Avg_size_per_room <= -0.506\ngini = 0.782\nsamples = 29\nvalue = [3, 4, 1, 0, 0, 0, 5, 3, 1, 0, 0, 1, 11]\nclass = Yellows"] ;
485 -> 486 ;
487 [label="gini = 0.0\nsamples = 11\nvalue = [0, 0, 0, 0, 0, 0, 0, 0, 0, 0, 0, 0, 11]\nclass = Yellows"] ;
486 -> 487 ;
488 [label="Avg_monthly_income_all_years <= 1.51\ngini = 0.809\nsamples = 18\nvalue = [3, 4, 1, 0, 0, 0, 5, 3, 1, 0, 0, 1, 0]\nclass = Pinks"] ;
486 -> 488 ;
489 [label="Overall_happiness_score <= 1.027\ngini = 0.764\nsamples = 15\nvalue = [0, 4, 1, 0, 0, 0, 5, 3, 1, 0, 0, 1, 0]\nclass = Pinks"] ;
488 -> 489 ;
490 [label="Avg_Satisfaction_with_previous_vote <= 0.11\ngini = 0.694\nsamples = 12\nvalue = [0, 4, 1, 0, 0, 0, 5, 0, 1, 0, 0, 1, 0]\nclass = Pinks"] ;
489 -> 490 ;
491 [label="Yearly_IncomeK <= 0.618\ngini = 0.642\nsamples = 9\nvalue = [0, 1, 1, 0, 0, 0, 5, 0, 1, 0, 0, 1, 0]\nclass = Pinks"] ;
490 -> 491 ;
492 [label="Most_Important_Issue_Foreign_Affairs <= 0.5\ngini = 0.278\nsamples = 6\nvalue = [0, 0, 0, 0, 0, 0, 5, 0, 1, 0, 0, 0, 0]\nclass = Pinks"] ;
491 -> 492 ;
493 [label="gini = 0.0\nsamples = 5\nvalue = [0, 0, 0, 0, 0, 0, 5, 0, 0, 0, 0, 0, 0]\nclass = Pinks"] ;
492 -> 493 ;
494 [label="gini = 0.0\nsamples = 1\nvalue = [0, 0, 0, 0, 0, 0, 0, 0, 1, 0, 0, 0, 0]\nclass = Reds"] ;
492 -> 494 ;
495 [label="gini = 0.667\nsamples = 3\nvalue = [0, 1, 1, 0, 0, 0, 0, 0, 0, 0, 0, 1, 0]\nclass = Browns"] ;
491 -> 495 ;
496 [label="gini = 0.0\nsamples = 3\nvalue = [0, 3, 0, 0, 0, 0, 0, 0, 0, 0, 0, 0, 0]\nclass = Browns"] ;
490 -> 496 ;
497 [label="gini = 0.0\nsamples = 3\nvalue = [0, 0, 0, 0, 0, 0, 0, 3, 0, 0, 0, 0, 0]\nclass = Purples"] ;
489 -> 497 ;
498 [label="gini = 0.0\nsamples = 3\nvalue = [3, 0, 0, 0, 0, 0, 0, 0, 0, 0, 0, 0, 0]\nclass = Blues"] ;
488 -> 498 ;
499 [label="Political_interest_Total_Score <= -0.511\ngini = 0.071\nsamples = 27\nvalue = [0, 0, 0, 0, 0, 26, 0, 0, 1, 0, 0, 0, 0]\nclass = Oranges"] ;
485 -> 499 ;
500 [label="gini = 0.0\nsamples = 1\nvalue = [0, 0, 0, 0, 0, 0, 0, 0, 1, 0, 0, 0, 0]\nclass = Reds"] ;
499 -> 500 ;
501 [label="gini = 0.0\nsamples = 26\nvalue = [0, 0, 0, 0, 0, 26, 0, 0, 0, 0, 0, 0, 0]\nclass = Oranges"] ;
499 -> 501 ;
502 [label="gini = 0.0\nsamples = 35\nvalue = [0, 0, 0, 0, 0, 35, 0, 0, 0, 0, 0, 0, 0]\nclass = Oranges"] ;
484 -> 502 ;
503 [label="Political_interest_Total_Score <= -0.434\ngini = 0.565\nsamples = 2473\nvalue = [53, 77, 350, 2, 0, 38, 31, 18, 44, 1569, 24, 22\n245]\nclass = Turquoises"] ;
1 -> 503 ;
504 [label="Weighted_education_rank <= 0.198\ngini = 0.233\nsamples = 1749\nvalue = [12, 19, 2, 2, 0, 10, 7, 6, 43, 1527, 4, 13\n104]\nclass = Turquoises"] ;
503 -> 504 ;
505 [label="Most_Important_Issue_Other <= 0.5\ngini = 0.081\nsamples = 1557\nvalue = [5, 11, 2, 0, 0, 6, 7, 2, 23, 1492, 2, 4, 3]\nclass = Turquoises"] ;
504 -> 505 ;
506 [label="Avg_Satisfaction_with_previous_vote <= 0.315\ngini = 0.048\nsamples = 1529\nvalue = [5, 11, 2, 0, 0, 0, 7, 2, 1, 1492, 2, 4, 3]\nclass = Turquoises"] ;
505 -> 506 ;
507 [label="Avg_monthly_income_all_years <= 1.81\ngini = 0.026\nsamples = 1512\nvalue = [2, 2, 2, 0, 0, 0, 7, 0, 1, 1492, 0, 4, 2]\nclass = Turquoises"] ;
506 -> 507 ;
508 [label="Weighted_education_rank <= -0.565\ngini = 0.024\nsamples = 1510\nvalue = [0, 2, 2, 0, 0, 0, 7, 0, 1, 1492, 0, 4, 2]\nclass = Turquoises"] ;
507 -> 508 ;
509 [label="Overall_happiness_score <= 0.258\ngini = 0.562\nsamples = 16\nvalue = [0, 0, 2, 0, 0, 0, 2, 0, 0, 10, 0, 0, 2]\nclass = Turquoises"] ;
508 -> 509 ;
510 [label="Overall_happiness_score <= -0.239\ngini = 0.292\nsamples = 12\nvalue = [0, 0, 0, 0, 0, 0, 1, 0, 0, 10, 0, 0, 1]\nclass = Turquoises"] ;
509 -> 510 ;
511 [label="gini = 0.5\nsamples = 2\nvalue = [0, 0, 0, 0, 0, 0, 1, 0, 0, 0, 0, 0, 1]\nclass = Pinks"] ;
510 -> 511 ;
512 [label="gini = 0.0\nsamples = 10\nvalue = [0, 0, 0, 0, 0, 0, 0, 0, 0, 10, 0, 0, 0]\nclass = Turquoises"] ;
510 -> 512 ;
513 [label="gini = 0.625\nsamples = 4\nvalue = [0, 0, 2, 0, 0, 0, 1, 0, 0, 0, 0, 0, 1]\nclass = Greens"] ;
509 -> 513 ;
514 [label="Most_Important_Issue_Foreign_Affairs <= 0.5\ngini = 0.016\nsamples = 1494\nvalue = [0, 2, 0, 0, 0, 0, 5, 0, 1, 1482, 0, 4, 0]\nclass = Turquoises"] ;
508 -> 514 ;
515 [label="Overall_happiness_score <= -0.773\ngini = 0.015\nsamples = 1493\nvalue = [0, 2, 0, 0, 0, 0, 5, 0, 0, 1482, 0, 4, 0]\nclass = Turquoises"] ;
514 -> 515 ;
516 [label="gini = 0.0\nsamples = 1\nvalue = [0, 1, 0, 0, 0, 0, 0, 0, 0, 0, 0, 0, 0]\nclass = Browns"] ;
515 -> 516 ;
517 [label="Political_interest_Total_Score <= -1.207\ngini = 0.013\nsamples = 1492\nvalue = [0, 1, 0, 0, 0, 0, 5, 0, 0, 1482, 0, 4, 0]\nclass = Turquoises"] ;
515 -> 517 ;
518 [label="gini = 0.444\nsamples = 3\nvalue = [0, 0, 0, 0, 0, 0, 0, 0, 0, 2, 0, 1, 0]\nclass = Turquoises"] ;
517 -> 518 ;
519 [label="Number_of_differnt_parties_voted_for <= 0.267\ngini = 0.012\nsamples = 1489\nvalue = [0, 1, 0, 0, 0, 0, 5, 0, 0, 1480, 0, 3, 0]\nclass = Turquoises"] ;
517 -> 519 ;
520 [label="Most_Important_Issue_Education <= 0.5\ngini = 0.048\nsamples = 329\nvalue = [0, 0, 0, 0, 0, 0, 5, 0, 0, 321, 0, 3, 0]\nclass = Turquoises"] ;
519 -> 520 ;
521 [label="gini = 0.0\nsamples = 319\nvalue = [0, 0, 0, 0, 0, 0, 0, 0, 0, 319, 0, 0, 0]\nclass = Turquoises"] ;
520 -> 521 ;
522 [label="Political_interest_Total_Score <= -0.903\ngini = 0.62\nsamples = 10\nvalue = [0, 0, 0, 0, 0, 0, 5, 0, 0, 2, 0, 3, 0]\nclass = Pinks"] ;
520 -> 522 ;
523 [label="gini = 0.0\nsamples = 3\nvalue = [0, 0, 0, 0, 0, 0, 0, 0, 0, 0, 0, 3, 0]\nclass = Whites"] ;
522 -> 523 ;
524 [label="Yearly_IncomeK <= 0.255\ngini = 0.408\nsamples = 7\nvalue = [0, 0, 0, 0, 0, 0, 5, 0, 0, 2, 0, 0, 0]\nclass = Pinks"] ;
522 -> 524 ;
525 [label="gini = 0.0\nsamples = 4\nvalue = [0, 0, 0, 0, 0, 0, 4, 0, 0, 0, 0, 0, 0]\nclass = Pinks"] ;
524 -> 525 ;
526 [label="gini = 0.444\nsamples = 3\nvalue = [0, 0, 0, 0, 0, 0, 1, 0, 0, 2, 0, 0, 0]\nclass = Turquoises"] ;
524 -> 526 ;
527 [label="Overall_happiness_score <= -0.378\ngini = 0.002\nsamples = 1160\nvalue = [0, 1, 0, 0, 0, 0, 0, 0, 0, 1159, 0, 0, 0]\nclass = Turquoises"] ;
519 -> 527 ;
528 [label="Overall_happiness_score <= -0.378\ngini = 0.026\nsamples = 77\nvalue = [0, 1, 0, 0, 0, 0, 0, 0, 0, 76, 0, 0, 0]\nclass = Turquoises"] ;
527 -> 528 ;
529 [label="gini = 0.0\nsamples = 76\nvalue = [0, 0, 0, 0, 0, 0, 0, 0, 0, 76, 0, 0, 0]\nclass = Turquoises"] ;
528 -> 529 ;
530 [label="gini = 0.0\nsamples = 1\nvalue = [0, 1, 0, 0, 0, 0, 0, 0, 0, 0, 0, 0, 0]\nclass = Browns"] ;
528 -> 530 ;
531 [label="gini = 0.0\nsamples = 1083\nvalue = [0, 0, 0, 0, 0, 0, 0, 0, 0, 1083, 0, 0, 0]\nclass = Turquoises"] ;
527 -> 531 ;
532 [label="gini = 0.0\nsamples = 1\nvalue = [0, 0, 0, 0, 0, 0, 0, 0, 1, 0, 0, 0, 0]\nclass = Reds"] ;
514 -> 532 ;
533 [label="gini = 0.0\nsamples = 2\nvalue = [2, 0, 0, 0, 0, 0, 0, 0, 0, 0, 0, 0, 0]\nclass = Blues"] ;
507 -> 533 ;
534 [label="Avg_monthly_income_all_years <= 2.067\ngini = 0.657\nsamples = 17\nvalue = [3, 9, 0, 0, 0, 0, 0, 2, 0, 0, 2, 0, 1]\nclass = Browns"] ;
506 -> 534 ;
535 [label="Avg_size_per_room <= -0.25\ngini = 0.541\nsamples = 14\nvalue = [0, 9, 0, 0, 0, 0, 0, 2, 0, 0, 2, 0, 1]\nclass = Browns"] ;
534 -> 535 ;
536 [label="gini = 0.444\nsamples = 3\nvalue = [0, 0, 0, 0, 0, 0, 0, 2, 0, 0, 1, 0, 0]\nclass = Purples"] ;
535 -> 536 ;
537 [label="Avg_monthly_income_all_years <= -1.136\ngini = 0.314\nsamples = 11\nvalue = [0, 9, 0, 0, 0, 0, 0, 0, 0, 0, 1, 0, 1]\nclass = Browns"] ;
535 -> 537 ;
538 [label="gini = 0.0\nsamples = 1\nvalue = [0, 0, 0, 0, 0, 0, 0, 0, 0, 0, 0, 0, 1]\nclass = Yellows"] ;
537 -> 538 ;
539 [label="Yearly_IncomeK <= 0.449\ngini = 0.18\nsamples = 10\nvalue = [0, 9, 0, 0, 0, 0, 0, 0, 0, 0, 1, 0, 0]\nclass = Browns"] ;
537 -> 539 ;
540 [label="gini = 0.0\nsamples = 8\nvalue = [0, 8, 0, 0, 0, 0, 0, 0, 0, 0, 0, 0, 0]\nclass = Browns"] ;
539 -> 540 ;
541 [label="gini = 0.5\nsamples = 2\nvalue = [0, 1, 0, 0, 0, 0, 0, 0, 0, 0, 1, 0, 0]\nclass = Browns"] ;
539 -> 541 ;
542 [label="gini = 0.0\nsamples = 3\nvalue = [3, 0, 0, 0, 0, 0, 0, 0, 0, 0, 0, 0, 0]\nclass = Blues"] ;
534 -> 542 ;
543 [label="Overall_happiness_score <= 0.093\ngini = 0.337\nsamples = 28\nvalue = [0, 0, 0, 0, 0, 6, 0, 0, 22, 0, 0, 0, 0]\nclass = Reds"] ;
505 -> 543 ;
544 [label="gini = 0.0\nsamples = 5\nvalue = [0, 0, 0, 0, 0, 5, 0, 0, 0, 0, 0, 0, 0]\nclass = Oranges"] ;
543 -> 544 ;
545 [label="Political_interest_Total_Score <= -0.549\ngini = 0.083\nsamples = 23\nvalue = [0, 0, 0, 0, 0, 1, 0, 0, 22, 0, 0, 0, 0]\nclass = Reds"] ;
543 -> 545 ;
546 [label="gini = 0.0\nsamples = 22\nvalue = [0, 0, 0, 0, 0, 0, 0, 0, 22, 0, 0, 0, 0]\nclass = Reds"] ;
545 -> 546 ;
547 [label="gini = 0.0\nsamples = 1\nvalue = [0, 0, 0, 0, 0, 1, 0, 0, 0, 0, 0, 0, 0]\nclass = Oranges"] ;
545 -> 547 ;
548 [label="Most_Important_Issue_Other <= 0.5\ngini = 0.673\nsamples = 192\nvalue = [7, 8, 0, 2, 0, 4, 0, 4, 20, 35, 2, 9, 101]\nclass = Yellows"] ;
504 -> 548 ;
549 [label="Avg_Satisfaction_with_previous_vote <= -0.5\ngini = 0.592\nsamples = 169\nvalue = [7, 8, 0, 2, 0, 1, 0, 4, 0, 35, 2, 9, 101]\nclass = Yellows"] ;
548 -> 549 ;
550 [label="Number_of_differnt_parties_voted_for <= 0.267\ngini = 0.349\nsamples = 28\nvalue = [0, 0, 0, 0, 0, 0, 0, 0, 0, 22, 0, 5, 1]\nclass = Turquoises"] ;
549 -> 550 ;
551 [label="Most_Important_Issue_Education <= 0.5\ngini = 0.408\nsamples = 7\nvalue = [0, 0, 0, 0, 0, 0, 0, 0, 0, 2, 0, 5, 0]\nclass = Whites"] ;
550 -> 551 ;
552 [label="gini = 0.0\nsamples = 2\nvalue = [0, 0, 0, 0, 0, 0, 0, 0, 0, 2, 0, 0, 0]\nclass = Turquoises"] ;
551 -> 552 ;
553 [label="gini = 0.0\nsamples = 5\nvalue = [0, 0, 0, 0, 0, 0, 0, 0, 0, 0, 0, 5, 0]\nclass = Whites"] ;
551 -> 553 ;
554 [label="Avg_monthly_income_all_years <= 1.37\ngini = 0.091\nsamples = 21\nvalue = [0, 0, 0, 0, 0, 0, 0, 0, 0, 20, 0, 0, 1]\nclass = Turquoises"] ;
550 -> 554 ;
555 [label="gini = 0.0\nsamples = 20\nvalue = [0, 0, 0, 0, 0, 0, 0, 0, 0, 20, 0, 0, 0]\nclass = Turquoises"] ;
554 -> 555 ;
556 [label="gini = 0.0\nsamples = 1\nvalue = [0, 0, 0, 0, 0, 0, 0, 0, 0, 0, 0, 0, 1]\nclass = Yellows"] ;
554 -> 556 ;
557 [label="Overall_happiness_score <= -0.336\ngini = 0.481\nsamples = 141\nvalue = [7, 8, 0, 2, 0, 1, 0, 4, 0, 13, 2, 4, 100]\nclass = Yellows"] ;
549 -> 557 ;
558 [label="Weighted_education_rank <= 0.831\ngini = 0.062\nsamples = 62\nvalue = [2, 0, 0, 0, 0, 0, 0, 0, 0, 0, 0, 0, 60]\nclass = Yellows"] ;
557 -> 558 ;
559 [label="Avg_monthly_income_all_years <= 2.949\ngini = 0.032\nsamples = 61\nvalue = [1, 0, 0, 0, 0, 0, 0, 0, 0, 0, 0, 0, 60]\nclass = Yellows"] ;
558 -> 559 ;
560 [label="gini = 0.0\nsamples = 60\nvalue = [0, 0, 0, 0, 0, 0, 0, 0, 0, 0, 0, 0, 60]\nclass = Yellows"] ;
559 -> 560 ;
561 [label="gini = 0.0\nsamples = 1\nvalue = [1, 0, 0, 0, 0, 0, 0, 0, 0, 0, 0, 0, 0]\nclass = Blues"] ;
559 -> 561 ;
562 [label="gini = 0.0\nsamples = 1\nvalue = [1, 0, 0, 0, 0, 0, 0, 0, 0, 0, 0, 0, 0]\nclass = Blues"] ;
558 -> 562 ;
563 [label="Overall_happiness_score <= 0.307\ngini = 0.696\nsamples = 79\nvalue = [5, 8, 0, 2, 0, 1, 0, 4, 0, 13, 2, 4, 40]\nclass = Yellows"] ;
557 -> 563 ;
564 [label="Avg_monthly_income_all_years <= 1.975\ngini = 0.793\nsamples = 32\nvalue = [5, 3, 0, 2, 0, 1, 0, 3, 0, 12, 2, 4, 0]\nclass = Turquoises"] ;
563 -> 564 ;
565 [label="Avg_size_per_room <= 0.216\ngini = 0.743\nsamples = 27\nvalue = [0, 3, 0, 2, 0, 1, 0, 3, 0, 12, 2, 4, 0]\nclass = Turquoises"] ;
564 -> 565 ;
566 [label="Most_Important_Issue_Education <= 0.5\ngini = 0.443\nsamples = 17\nvalue = [0, 0, 0, 0, 0, 1, 0, 0, 0, 12, 0, 4, 0]\nclass = Turquoises"] ;
565 -> 566 ;
567 [label="Avg_Satisfaction_with_previous_vote <= 0.554\ngini = 0.153\nsamples = 12\nvalue = [0, 0, 0, 0, 0, 1, 0, 0, 0, 11, 0, 0, 0]\nclass = Turquoises"] ;
566 -> 567 ;
568 [label="gini = 0.0\nsamples = 11\nvalue = [0, 0, 0, 0, 0, 0, 0, 0, 0, 11, 0, 0, 0]\nclass = Turquoises"] ;
567 -> 568 ;
569 [label="gini = 0.0\nsamples = 1\nvalue = [0, 0, 0, 0, 0, 1, 0, 0, 0, 0, 0, 0, 0]\nclass = Oranges"] ;
567 -> 569 ;
570 [label="gini = 0.32\nsamples = 5\nvalue = [0, 0, 0, 0, 0, 0, 0, 0, 0, 1, 0, 4, 0]\nclass = Whites"] ;
566 -> 570 ;
571 [label="Weighted_education_rank <= 0.464\ngini = 0.74\nsamples = 10\nvalue = [0, 3, 0, 2, 0, 0, 0, 3, 0, 0, 2, 0, 0]\nclass = Browns"] ;
565 -> 571 ;
572 [label="gini = 0.0\nsamples = 3\nvalue = [0, 0, 0, 0, 0, 0, 0, 3, 0, 0, 0, 0, 0]\nclass = Purples"] ;
571 -> 572 ;
573 [label="Yearly_IncomeK <= 0.242\ngini = 0.653\nsamples = 7\nvalue = [0, 3, 0, 2, 0, 0, 0, 0, 0, 0, 2, 0, 0]\nclass = Browns"] ;
571 -> 573 ;
574 [label="gini = 0.5\nsamples = 4\nvalue = [0, 0, 0, 2, 0, 0, 0, 0, 0, 0, 2, 0, 0]\nclass = Greys"] ;
573 -> 574 ;
575 [label="gini = 0.0\nsamples = 3\nvalue = [0, 3, 0, 0, 0, 0, 0, 0, 0, 0, 0, 0, 0]\nclass = Browns"] ;
573 -> 575 ;
576 [label="gini = 0.0\nsamples = 5\nvalue = [5, 0, 0, 0, 0, 0, 0, 0, 0, 0, 0, 0, 0]\nclass = Blues"] ;
564 -> 576 ;
577 [label="Weighted_education_rank <= 0.792\ngini = 0.263\nsamples = 47\nvalue = [0, 5, 0, 0, 0, 0, 0, 1, 0, 1, 0, 0, 40]\nclass = Yellows"] ;
563 -> 577 ;
578 [label="Avg_Satisfaction_with_previous_vote <= 1.318\ngini = 0.174\nsamples = 43\nvalue = [0, 2, 0, 0, 0, 0, 0, 1, 0, 1, 0, 0, 39]\nclass = Yellows"] ;
577 -> 578 ;
579 [label="Avg_size_per_room <= 0.858\ngini = 0.094\nsamples = 41\nvalue = [0, 0, 0, 0, 0, 0, 0, 1, 0, 1, 0, 0, 39]\nclass = Yellows"] ;
578 -> 579 ;
580 [label="Yearly_IncomeK <= -0.69\ngini = 0.049\nsamples = 40\nvalue = [0, 0, 0, 0, 0, 0, 0, 0, 0, 1, 0, 0, 39]\nclass = Yellows"] ;
579 -> 580 ;
581 [label="gini = 0.5\nsamples = 2\nvalue = [0, 0, 0, 0, 0, 0, 0, 0, 0, 1, 0, 0, 1]\nclass = Turquoises"] ;
580 -> 581 ;
582 [label="gini = 0.0\nsamples = 38\nvalue = [0, 0, 0, 0, 0, 0, 0, 0, 0, 0, 0, 0, 38]\nclass = Yellows"] ;
580 -> 582 ;
583 [label="gini = 0.0\nsamples = 1\nvalue = [0, 0, 0, 0, 0, 0, 0, 1, 0, 0, 0, 0, 0]\nclass = Purples"] ;
579 -> 583 ;
584 [label="gini = 0.0\nsamples = 2\nvalue = [0, 2, 0, 0, 0, 0, 0, 0, 0, 0, 0, 0, 0]\nclass = Browns"] ;
578 -> 584 ;
585 [label="gini = 0.375\nsamples = 4\nvalue = [0, 3, 0, 0, 0, 0, 0, 0, 0, 0, 0, 0, 1]\nclass = Browns"] ;
577 -> 585 ;
586 [label="Overall_happiness_score <= 0.066\ngini = 0.227\nsamples = 23\nvalue = [0, 0, 0, 0, 0, 3, 0, 0, 20, 0, 0, 0, 0]\nclass = Reds"] ;
548 -> 586 ;
587 [label="gini = 0.0\nsamples = 3\nvalue = [0, 0, 0, 0, 0, 3, 0, 0, 0, 0, 0, 0, 0]\nclass = Oranges"] ;
586 -> 587 ;
588 [label="gini = 0.0\nsamples = 20\nvalue = [0, 0, 0, 0, 0, 0, 0, 0, 20, 0, 0, 0, 0]\nclass = Reds"] ;
586 -> 588 ;
589 [label="Overall_happiness_score <= 0.475\ngini = 0.714\nsamples = 724\nvalue = [41, 58, 348, 0, 0, 28, 24, 12, 1, 42, 20, 9\n141]\nclass = Greens"] ;
503 -> 589 ;
590 [label="Avg_Satisfaction_with_previous_vote <= -0.597\ngini = 0.821\nsamples = 323\nvalue = [32, 41, 24, 0, 0, 18, 24, 3, 1, 42, 18, 9, 111]\nclass = Yellows"] ;
589 -> 590 ;
591 [label="Overall_happiness_score <= 0.355\ngini = 0.747\nsamples = 61\nvalue = [0, 0, 15, 0, 0, 5, 15, 0, 0, 21, 0, 5, 0]\nclass = Turquoises"] ;
590 -> 591 ;
592 [label="Avg_size_per_room <= 0.704\ngini = 0.675\nsamples = 47\nvalue = [0, 0, 1, 0, 0, 5, 15, 0, 0, 21, 0, 5, 0]\nclass = Turquoises"] ;
591 -> 592 ;
593 [label="Political_interest_Total_Score <= -0.234\ngini = 0.608\nsamples = 36\nvalue = [0, 0, 1, 0, 0, 5, 4, 0, 0, 21, 0, 5, 0]\nclass = Turquoises"] ;
592 -> 593 ;
594 [label="Most_Important_Issue_Other <= 0.5\ngini = 0.295\nsamples = 24\nvalue = [0, 0, 1, 0, 0, 2, 1, 0, 0, 20, 0, 0, 0]\nclass = Turquoises"] ;
593 -> 594 ;
595 [label="Avg_Satisfaction_with_previous_vote <= -1.594\ngini = 0.169\nsamples = 22\nvalue = [0, 0, 1, 0, 0, 0, 1, 0, 0, 20, 0, 0, 0]\nclass = Turquoises"] ;
594 -> 595 ;
596 [label="gini = 0.0\nsamples = 1\nvalue = [0, 0, 0, 0, 0, 0, 1, 0, 0, 0, 0, 0, 0]\nclass = Pinks"] ;
595 -> 596 ;
597 [label="Avg_size_per_room <= 0.109\ngini = 0.091\nsamples = 21\nvalue = [0, 0, 1, 0, 0, 0, 0, 0, 0, 20, 0, 0, 0]\nclass = Turquoises"] ;
595 -> 597 ;
598 [label="gini = 0.0\nsamples = 20\nvalue = [0, 0, 0, 0, 0, 0, 0, 0, 0, 20, 0, 0, 0]\nclass = Turquoises"] ;
597 -> 598 ;
599 [label="gini = 0.0\nsamples = 1\nvalue = [0, 0, 1, 0, 0, 0, 0, 0, 0, 0, 0, 0, 0]\nclass = Greens"] ;
597 -> 599 ;
600 [label="gini = 0.0\nsamples = 2\nvalue = [0, 0, 0, 0, 0, 2, 0, 0, 0, 0, 0, 0, 0]\nclass = Oranges"] ;
594 -> 600 ;
601 [label="Most_Important_Issue_Other <= 0.5\ngini = 0.694\nsamples = 12\nvalue = [0, 0, 0, 0, 0, 3, 3, 0, 0, 1, 0, 5, 0]\nclass = Whites"] ;
593 -> 601 ;
602 [label="Overall_happiness_score <= 0.01\ngini = 0.568\nsamples = 9\nvalue = [0, 0, 0, 0, 0, 0, 3, 0, 0, 1, 0, 5, 0]\nclass = Whites"] ;
601 -> 602 ;
603 [label="gini = 0.375\nsamples = 4\nvalue = [0, 0, 0, 0, 0, 0, 3, 0, 0, 1, 0, 0, 0]\nclass = Pinks"] ;
602 -> 603 ;
604 [label="gini = 0.0\nsamples = 5\nvalue = [0, 0, 0, 0, 0, 0, 0, 0, 0, 0, 0, 5, 0]\nclass = Whites"] ;
602 -> 604 ;
605 [label="gini = 0.0\nsamples = 3\nvalue = [0, 0, 0, 0, 0, 3, 0, 0, 0, 0, 0, 0, 0]\nclass = Oranges"] ;
601 -> 605 ;
606 [label="gini = 0.0\nsamples = 11\nvalue = [0, 0, 0, 0, 0, 0, 11, 0, 0, 0, 0, 0, 0]\nclass = Pinks"] ;
592 -> 606 ;
607 [label="gini = 0.0\nsamples = 14\nvalue = [0, 0, 14, 0, 0, 0, 0, 0, 0, 0, 0, 0, 0]\nclass = Greens"] ;
591 -> 607 ;
608 [label="Avg_monthly_income_all_years <= 1.749\ngini = 0.765\nsamples = 262\nvalue = [32, 41, 9, 0, 0, 13, 9, 3, 1, 21, 18, 4, 111]\nclass = Yellows"] ;
590 -> 608 ;
609 [label="Most_Important_Issue_Other <= 0.5\ngini = 0.749\nsamples = 219\nvalue = [4, 41, 9, 0, 0, 13, 9, 3, 1, 21, 18, 4, 96]\nclass = Yellows"] ;
608 -> 609 ;
610 [label="Avg_Satisfaction_with_previous_vote <= 1.513\ngini = 0.72\nsamples = 206\nvalue = [4, 41, 9, 0, 0, 1, 9, 3, 0, 21, 18, 4, 96]\nclass = Yellows"] ;
609 -> 610 ;
611 [label="Weighted_education_rank <= -0.627\ngini = 0.695\nsamples = 188\nvalue = [4, 26, 9, 0, 0, 1, 9, 2, 0, 21, 16, 4, 96]\nclass = Yellows"] ;
610 -> 611 ;
612 [label="Avg_size_per_room <= 0.178\ngini = 0.511\nsamples = 97\nvalue = [0, 12, 9, 0, 0, 1, 1, 0, 0, 2, 3, 3, 66]\nclass = Yellows"] ;
611 -> 612 ;
613 [label="Avg_size_per_room <= -0.273\ngini = 0.733\nsamples = 44\nvalue = [0, 12, 5, 0, 0, 0, 1, 0, 0, 2, 3, 3, 18]\nclass = Yellows"] ;
612 -> 613 ;
614 [label="Overall_happiness_score <= -0.306\ngini = 0.583\nsamples = 29\nvalue = [0, 2, 0, 0, 0, 0, 1, 0, 0, 2, 3, 3, 18]\nclass = Yellows"] ;
613 -> 614 ;
615 [label="Avg_size_per_room <= -0.909\ngini = 0.265\nsamples = 20\nvalue = [0, 2, 0, 0, 0, 0, 0, 0, 0, 0, 1, 0, 17]\nclass = Yellows"] ;
614 -> 615 ;
616 [label="gini = 0.0\nsamples = 2\nvalue = [0, 2, 0, 0, 0, 0, 0, 0, 0, 0, 0, 0, 0]\nclass = Browns"] ;
615 -> 616 ;
617 [label="Avg_Satisfaction_with_previous_vote <= 1.499\ngini = 0.105\nsamples = 18\nvalue = [0, 0, 0, 0, 0, 0, 0, 0, 0, 0, 1, 0, 17]\nclass = Yellows"] ;
615 -> 617 ;
618 [label="gini = 0.0\nsamples = 17\nvalue = [0, 0, 0, 0, 0, 0, 0, 0, 0, 0, 0, 0, 17]\nclass = Yellows"] ;
617 -> 618 ;
619 [label="gini = 0.0\nsamples = 1\nvalue = [0, 0, 0, 0, 0, 0, 0, 0, 0, 0, 1, 0, 0]\nclass = Violets"] ;
617 -> 619 ;
620 [label="Avg_size_per_room <= -0.691\ngini = 0.765\nsamples = 9\nvalue = [0, 0, 0, 0, 0, 0, 1, 0, 0, 2, 2, 3, 1]\nclass = Whites"] ;
614 -> 620 ;
621 [label="gini = 0.0\nsamples = 3\nvalue = [0, 0, 0, 0, 0, 0, 0, 0, 0, 0, 0, 3, 0]\nclass = Whites"] ;
620 -> 621 ;
622 [label="Weighted_education_rank <= -0.683\ngini = 0.722\nsamples = 6\nvalue = [0, 0, 0, 0, 0, 0, 1, 0, 0, 2, 2, 0, 1]\nclass = Turquoises"] ;
620 -> 622 ;
623 [label="gini = 0.625\nsamples = 4\nvalue = [0, 0, 0, 0, 0, 0, 1, 0, 0, 0, 2, 0, 1]\nclass = Violets"] ;
622 -> 623 ;
624 [label="gini = 0.0\nsamples = 2\nvalue = [0, 0, 0, 0, 0, 0, 0, 0, 0, 2, 0, 0, 0]\nclass = Turquoises"] ;
622 -> 624 ;
625 [label="Yearly_IncomeK <= -0.294\ngini = 0.444\nsamples = 15\nvalue = [0, 10, 5, 0, 0, 0, 0, 0, 0, 0, 0, 0, 0]\nclass = Browns"] ;
613 -> 625 ;
626 [label="gini = 0.0\nsamples = 5\nvalue = [0, 0, 5, 0, 0, 0, 0, 0, 0, 0, 0, 0, 0]\nclass = Greens"] ;
625 -> 626 ;
627 [label="gini = 0.0\nsamples = 10\nvalue = [0, 10, 0, 0, 0, 0, 0, 0, 0, 0, 0, 0, 0]\nclass = Browns"] ;
625 -> 627 ;
628 [label="Avg_Satisfaction_with_previous_vote <= -0.394\ngini = 0.174\nsamples = 53\nvalue = [0, 0, 4, 0, 0, 1, 0, 0, 0, 0, 0, 0, 48]\nclass = Yellows"] ;
612 -> 628 ;
629 [label="Yearly_IncomeK <= 0.062\ngini = 0.612\nsamples = 7\nvalue = [0, 0, 3, 0, 0, 1, 0, 0, 0, 0, 0, 0, 3]\nclass = Greens"] ;
628 -> 629 ;
630 [label="gini = 0.0\nsamples = 3\nvalue = [0, 0, 3, 0, 0, 0, 0, 0, 0, 0, 0, 0, 0]\nclass = Greens"] ;
629 -> 630 ;
631 [label="gini = 0.375\nsamples = 4\nvalue = [0, 0, 0, 0, 0, 1, 0, 0, 0, 0, 0, 0, 3]\nclass = Yellows"] ;
629 -> 631 ;
632 [label="Yearly_IncomeK <= -0.741\ngini = 0.043\nsamples = 46\nvalue = [0, 0, 1, 0, 0, 0, 0, 0, 0, 0, 0, 0, 45]\nclass = Yellows"] ;
628 -> 632 ;
633 [label="gini = 0.444\nsamples = 3\nvalue = [0, 0, 1, 0, 0, 0, 0, 0, 0, 0, 0, 0, 2]\nclass = Yellows"] ;
632 -> 633 ;
634 [label="gini = 0.0\nsamples = 43\nvalue = [0, 0, 0, 0, 0, 0, 0, 0, 0, 0, 0, 0, 43]\nclass = Yellows"] ;
632 -> 634 ;
635 [label="Weighted_education_rank <= 0.191\ngini = 0.793\nsamples = 91\nvalue = [4, 14, 0, 0, 0, 0, 8, 2, 0, 19, 13, 1, 30]\nclass = Yellows"] ;
611 -> 635 ;
636 [label="Overall_happiness_score <= -0.599\ngini = 0.708\nsamples = 41\nvalue = [2, 10, 0, 0, 0, 0, 1, 2, 0, 19, 4, 1, 2]\nclass = Turquoises"] ;
635 -> 636 ;
637 [label="Avg_monthly_income_all_years <= 1.458\ngini = 0.391\nsamples = 13\nvalue = [1, 10, 0, 0, 0, 0, 0, 1, 0, 0, 1, 0, 0]\nclass = Browns"] ;
636 -> 637 ;
638 [label="Weighted_education_rank <= -0.496\ngini = 0.292\nsamples = 12\nvalue = [0, 10, 0, 0, 0, 0, 0, 1, 0, 0, 1, 0, 0]\nclass = Browns"] ;
637 -> 638 ;
639 [label="gini = 0.0\nsamples = 1\nvalue = [0, 0, 0, 0, 0, 0, 0, 0, 0, 0, 1, 0, 0]\nclass = Violets"] ;
638 -> 639 ;
640 [label="Avg_monthly_income_all_years <= -0.981\ngini = 0.165\nsamples = 11\nvalue = [0, 10, 0, 0, 0, 0, 0, 1, 0, 0, 0, 0, 0]\nclass = Browns"] ;
638 -> 640 ;
641 [label="gini = 0.5\nsamples = 2\nvalue = [0, 1, 0, 0, 0, 0, 0, 1, 0, 0, 0, 0, 0]\nclass = Browns"] ;
640 -> 641 ;
642 [label="gini = 0.0\nsamples = 9\nvalue = [0, 9, 0, 0, 0, 0, 0, 0, 0, 0, 0, 0, 0]\nclass = Browns"] ;
640 -> 642 ;
643 [label="gini = 0.0\nsamples = 1\nvalue = [1, 0, 0, 0, 0, 0, 0, 0, 0, 0, 0, 0, 0]\nclass = Blues"] ;
637 -> 643 ;
644 [label="Yearly_IncomeK <= -0.18\ngini = 0.518\nsamples = 28\nvalue = [1, 0, 0, 0, 0, 0, 1, 1, 0, 19, 3, 1, 2]\nclass = Turquoises"] ;
636 -> 644 ;
645 [label="Political_interest_Total_Score <= -0.254\ngini = 0.259\nsamples = 21\nvalue = [1, 0, 0, 0, 0, 0, 1, 0, 0, 18, 0, 1, 0]\nclass = Turquoises"] ;
644 -> 645 ;
646 [label="gini = 0.0\nsamples = 18\nvalue = [0, 0, 0, 0, 0, 0, 0, 0, 0, 18, 0, 0, 0]\nclass = Turquoises"] ;
645 -> 646 ;
647 [label="gini = 0.667\nsamples = 3\nvalue = [1, 0, 0, 0, 0, 0, 1, 0, 0, 0, 0, 1, 0]\nclass = Blues"] ;
645 -> 647 ;
648 [label="Avg_monthly_income_all_years <= -1.15\ngini = 0.694\nsamples = 7\nvalue = [0, 0, 0, 0, 0, 0, 0, 1, 0, 1, 3, 0, 2]\nclass = Violets"] ;
644 -> 648 ;
649 [label="gini = 0.0\nsamples = 2\nvalue = [0, 0, 0, 0, 0, 0, 0, 0, 0, 0, 0, 0, 2]\nclass = Yellows"] ;
648 -> 649 ;
650 [label="gini = 0.56\nsamples = 5\nvalue = [0, 0, 0, 0, 0, 0, 0, 1, 0, 1, 3, 0, 0]\nclass = Violets"] ;
648 -> 650 ;
651 [label="Avg_size_per_room <= -0.29\ngini = 0.626\nsamples = 50\nvalue = [2, 4, 0, 0, 0, 0, 7, 0, 0, 0, 9, 0, 28]\nclass = Yellows"] ;
635 -> 651 ;
652 [label="gini = 0.0\nsamples = 26\nvalue = [0, 0, 0, 0, 0, 0, 0, 0, 0, 0, 0, 0, 26]\nclass = Yellows"] ;
651 -> 652 ;
653 [label="Overall_happiness_score <= 0.016\ngini = 0.733\nsamples = 24\nvalue = [2, 4, 0, 0, 0, 0, 7, 0, 0, 0, 9, 0, 2]\nclass = Violets"] ;
651 -> 653 ;
654 [label="Yearly_IncomeK <= -0.324\ngini = 0.46\nsamples = 10\nvalue = [0, 1, 0, 0, 0, 0, 7, 0, 0, 0, 0, 0, 2]\nclass = Pinks"] ;
653 -> 654 ;
655 [label="gini = 0.0\nsamples = 7\nvalue = [0, 0, 0, 0, 0, 0, 7, 0, 0, 0, 0, 0, 0]\nclass = Pinks"] ;
654 -> 655 ;
656 [label="gini = 0.444\nsamples = 3\nvalue = [0, 1, 0, 0, 0, 0, 0, 0, 0, 0, 0, 0, 2]\nclass = Yellows"] ;
654 -> 656 ;
657 [label="Overall_happiness_score <= 0.321\ngini = 0.52\nsamples = 14\nvalue = [2, 3, 0, 0, 0, 0, 0, 0, 0, 0, 9, 0, 0]\nclass = Violets"] ;
653 -> 657 ;
658 [label="Avg_monthly_income_all_years <= 1.4\ngini = 0.298\nsamples = 11\nvalue = [2, 0, 0, 0, 0, 0, 0, 0, 0, 0, 9, 0, 0]\nclass = Violets"] ;
657 -> 658 ;
659 [label="gini = 0.0\nsamples = 9\nvalue = [0, 0, 0, 0, 0, 0, 0, 0, 0, 0, 9, 0, 0]\nclass = Violets"] ;
658 -> 659 ;
660 [label="gini = 0.0\nsamples = 2\nvalue = [2, 0, 0, 0, 0, 0, 0, 0, 0, 0, 0, 0, 0]\nclass = Blues"] ;
658 -> 660 ;
661 [label="gini = 0.0\nsamples = 3\nvalue = [0, 3, 0, 0, 0, 0, 0, 0, 0, 0, 0, 0, 0]\nclass = Browns"] ;
657 -> 661 ;
662 [label="Political_interest_Total_Score <= -0.019\ngini = 0.29\nsamples = 18\nvalue = [0, 15, 0, 0, 0, 0, 0, 1, 0, 0, 2, 0, 0]\nclass = Browns"] ;
610 -> 662 ;
663 [label="Avg_monthly_income_all_years <= -0.945\ngini = 0.208\nsamples = 17\nvalue = [0, 15, 0, 0, 0, 0, 0, 0, 0, 0, 2, 0, 0]\nclass = Browns"] ;
662 -> 663 ;
664 [label="gini = 0.5\nsamples = 4\nvalue = [0, 2, 0, 0, 0, 0, 0, 0, 0, 0, 2, 0, 0]\nclass = Browns"] ;
663 -> 664 ;
665 [label="gini = 0.0\nsamples = 13\nvalue = [0, 13, 0, 0, 0, 0, 0, 0, 0, 0, 0, 0, 0]\nclass = Browns"] ;
663 -> 665 ;
666 [label="gini = 0.0\nsamples = 1\nvalue = [0, 0, 0, 0, 0, 0, 0, 1, 0, 0, 0, 0, 0]\nclass = Purples"] ;
662 -> 666 ;
667 [label="Political_interest_Total_Score <= -0.307\ngini = 0.142\nsamples = 13\nvalue = [0, 0, 0, 0, 0, 12, 0, 0, 1, 0, 0, 0, 0]\nclass = Oranges"] ;
609 -> 667 ;
668 [label="gini = 0.0\nsamples = 1\nvalue = [0, 0, 0, 0, 0, 0, 0, 0, 1, 0, 0, 0, 0]\nclass = Reds"] ;
667 -> 668 ;
669 [label="gini = 0.0\nsamples = 12\nvalue = [0, 0, 0, 0, 0, 12, 0, 0, 0, 0, 0, 0, 0]\nclass = Oranges"] ;
667 -> 669 ;
670 [label="Overall_happiness_score <= 0.332\ngini = 0.454\nsamples = 43\nvalue = [28, 0, 0, 0, 0, 0, 0, 0, 0, 0, 0, 0, 15]\nclass = Blues"] ;
608 -> 670 ;
671 [label="Weighted_education_rank <= -0.651\ngini = 0.368\nsamples = 37\nvalue = [28, 0, 0, 0, 0, 0, 0, 0, 0, 0, 0, 0, 9]\nclass = Blues"] ;
670 -> 671 ;
672 [label="Overall_happiness_score <= -0.409\ngini = 0.498\nsamples = 17\nvalue = [8, 0, 0, 0, 0, 0, 0, 0, 0, 0, 0, 0, 9]\nclass = Yellows"] ;
671 -> 672 ;
673 [label="Overall_happiness_score <= -0.822\ngini = 0.375\nsamples = 12\nvalue = [3, 0, 0, 0, 0, 0, 0, 0, 0, 0, 0, 0, 9]\nclass = Yellows"] ;
672 -> 673 ;
674 [label="gini = 0.0\nsamples = 2\nvalue = [2, 0, 0, 0, 0, 0, 0, 0, 0, 0, 0, 0, 0]\nclass = Blues"] ;
673 -> 674 ;
675 [label="Avg_Satisfaction_with_previous_vote <= -0.16\ngini = 0.18\nsamples = 10\nvalue = [1, 0, 0, 0, 0, 0, 0, 0, 0, 0, 0, 0, 9]\nclass = Yellows"] ;
673 -> 675 ;
676 [label="gini = 0.0\nsamples = 1\nvalue = [1, 0, 0, 0, 0, 0, 0, 0, 0, 0, 0, 0, 0]\nclass = Blues"] ;
675 -> 676 ;
677 [label="gini = 0.0\nsamples = 9\nvalue = [0, 0, 0, 0, 0, 0, 0, 0, 0, 0, 0, 0, 9]\nclass = Yellows"] ;
675 -> 677 ;
678 [label="gini = 0.0\nsamples = 5\nvalue = [5, 0, 0, 0, 0, 0, 0, 0, 0, 0, 0, 0, 0]\nclass = Blues"] ;
672 -> 678 ;
679 [label="gini = 0.0\nsamples = 20\nvalue = [20, 0, 0, 0, 0, 0, 0, 0, 0, 0, 0, 0, 0]\nclass = Blues"] ;
671 -> 679 ;
680 [label="gini = 0.0\nsamples = 6\nvalue = [0, 0, 0, 0, 0, 0, 0, 0, 0, 0, 0, 0, 6]\nclass = Yellows"] ;
670 -> 680 ;
681 [label="Avg_Satisfaction_with_previous_vote <= 0.327\ngini = 0.338\nsamples = 401\nvalue = [9, 17, 324, 0, 0, 10, 0, 9, 0, 0, 2, 0, 30]\nclass = Greens"] ;
589 -> 681 ;
682 [label="Avg_size_per_room <= -0.207\ngini = 0.146\nsamples = 351\nvalue = [2, 2, 324, 0, 0, 8, 0, 1, 0, 0, 0, 0, 14]\nclass = Greens"] ;
681 -> 682 ;
683 [label="Overall_happiness_score <= 0.729\ngini = 0.539\nsamples = 16\nvalue = [1, 0, 0, 0, 0, 6, 0, 0, 0, 0, 0, 0, 9]\nclass = Yellows"] ;
682 -> 683 ;
684 [label="gini = 0.0\nsamples = 9\nvalue = [0, 0, 0, 0, 0, 0, 0, 0, 0, 0, 0, 0, 9]\nclass = Yellows"] ;
683 -> 684 ;
685 [label="Most_Important_Issue_Environment <= 0.5\ngini = 0.245\nsamples = 7\nvalue = [1, 0, 0, 0, 0, 6, 0, 0, 0, 0, 0, 0, 0]\nclass = Oranges"] ;
683 -> 685 ;
686 [label="gini = 0.0\nsamples = 6\nvalue = [0, 0, 0, 0, 0, 6, 0, 0, 0, 0, 0, 0, 0]\nclass = Oranges"] ;
685 -> 686 ;
687 [label="gini = 0.0\nsamples = 1\nvalue = [1, 0, 0, 0, 0, 0, 0, 0, 0, 0, 0, 0, 0]\nclass = Blues"] ;
685 -> 687 ;
688 [label="Weighted_education_rank <= 0.055\ngini = 0.064\nsamples = 335\nvalue = [1, 2, 324, 0, 0, 2, 0, 1, 0, 0, 0, 0, 5]\nclass = Greens"] ;
682 -> 688 ;
689 [label="Most_Important_Issue_Other <= 0.5\ngini = 0.036\nsamples = 330\nvalue = [0, 0, 324, 0, 0, 1, 0, 0, 0, 0, 0, 0, 5]\nclass = Greens"] ;
688 -> 689 ;
690 [label="Avg_monthly_income_all_years <= -1.216\ngini = 0.03\nsamples = 329\nvalue = [0, 0, 324, 0, 0, 0, 0, 0, 0, 0, 0, 0, 5]\nclass = Greens"] ;
689 -> 690 ;
691 [label="gini = 0.0\nsamples = 1\nvalue = [0, 0, 0, 0, 0, 0, 0, 0, 0, 0, 0, 0, 1]\nclass = Yellows"] ;
690 -> 691 ;
692 [label="Avg_monthly_income_all_years <= 1.55\ngini = 0.024\nsamples = 328\nvalue = [0, 0, 324, 0, 0, 0, 0, 0, 0, 0, 0, 0, 4]\nclass = Greens"] ;
690 -> 692 ;
693 [label="Yearly_IncomeK <= 0.982\ngini = 0.018\nsamples = 327\nvalue = [0, 0, 324, 0, 0, 0, 0, 0, 0, 0, 0, 0, 3]\nclass = Greens"] ;
692 -> 693 ;
694 [label="Avg_monthly_income_all_years <= 1.311\ngini = 0.012\nsamples = 324\nvalue = [0, 0, 322, 0, 0, 0, 0, 0, 0, 0, 0, 0, 2]\nclass = Greens"] ;
693 -> 694 ;
695 [label="gini = 0.0\nsamples = 310\nvalue = [0, 0, 310, 0, 0, 0, 0, 0, 0, 0, 0, 0, 0]\nclass = Greens"] ;
694 -> 695 ;
696 [label="Yearly_IncomeK <= 0.648\ngini = 0.245\nsamples = 14\nvalue = [0, 0, 12, 0, 0, 0, 0, 0, 0, 0, 0, 0, 2]\nclass = Greens"] ;
694 -> 696 ;
697 [label="gini = 0.0\nsamples = 12\nvalue = [0, 0, 12, 0, 0, 0, 0, 0, 0, 0, 0, 0, 0]\nclass = Greens"] ;
696 -> 697 ;
698 [label="gini = 0.0\nsamples = 2\nvalue = [0, 0, 0, 0, 0, 0, 0, 0, 0, 0, 0, 0, 2]\nclass = Yellows"] ;
696 -> 698 ;
699 [label="gini = 0.444\nsamples = 3\nvalue = [0, 0, 2, 0, 0, 0, 0, 0, 0, 0, 0, 0, 1]\nclass = Greens"] ;
693 -> 699 ;
700 [label="gini = 0.0\nsamples = 1\nvalue = [0, 0, 0, 0, 0, 0, 0, 0, 0, 0, 0, 0, 1]\nclass = Yellows"] ;
692 -> 700 ;
701 [label="gini = 0.0\nsamples = 1\nvalue = [0, 0, 0, 0, 0, 1, 0, 0, 0, 0, 0, 0, 0]\nclass = Oranges"] ;
689 -> 701 ;
702 [label="gini = 0.72\nsamples = 5\nvalue = [1, 2, 0, 0, 0, 1, 0, 1, 0, 0, 0, 0, 0]\nclass = Browns"] ;
688 -> 702 ;
703 [label="Weighted_education_rank <= 0.525\ngini = 0.759\nsamples = 50\nvalue = [7, 15, 0, 0, 0, 2, 0, 8, 0, 0, 2, 0, 16]\nclass = Yellows"] ;
681 -> 703 ;
704 [label="Avg_size_per_room <= 0.582\ngini = 0.553\nsamples = 26\nvalue = [3, 0, 0, 0, 0, 1, 0, 6, 0, 0, 0, 0, 16]\nclass = Yellows"] ;
703 -> 704 ;
705 [label="Most_Important_Issue_Other <= 0.5\ngini = 0.215\nsamples = 17\nvalue = [1, 0, 0, 0, 0, 1, 0, 0, 0, 0, 0, 0, 15]\nclass = Yellows"] ;
704 -> 705 ;
706 [label="Avg_monthly_income_all_years <= 2.033\ngini = 0.117\nsamples = 16\nvalue = [1, 0, 0, 0, 0, 0, 0, 0, 0, 0, 0, 0, 15]\nclass = Yellows"] ;
705 -> 706 ;
707 [label="gini = 0.0\nsamples = 15\nvalue = [0, 0, 0, 0, 0, 0, 0, 0, 0, 0, 0, 0, 15]\nclass = Yellows"] ;
706 -> 707 ;
708 [label="gini = 0.0\nsamples = 1\nvalue = [1, 0, 0, 0, 0, 0, 0, 0, 0, 0, 0, 0, 0]\nclass = Blues"] ;
706 -> 708 ;
709 [label="gini = 0.0\nsamples = 1\nvalue = [0, 0, 0, 0, 0, 1, 0, 0, 0, 0, 0, 0, 0]\nclass = Oranges"] ;
705 -> 709 ;
710 [label="Weighted_education_rank <= 0.083\ngini = 0.494\nsamples = 9\nvalue = [2, 0, 0, 0, 0, 0, 0, 6, 0, 0, 0, 0, 1]\nclass = Purples"] ;
704 -> 710 ;
711 [label="gini = 0.444\nsamples = 3\nvalue = [2, 0, 0, 0, 0, 0, 0, 0, 0, 0, 0, 0, 1]\nclass = Blues"] ;
710 -> 711 ;
712 [label="gini = 0.0\nsamples = 6\nvalue = [0, 0, 0, 0, 0, 0, 0, 6, 0, 0, 0, 0, 0]\nclass = Purples"] ;
710 -> 712 ;
713 [label="Avg_monthly_income_all_years <= 1.678\ngini = 0.566\nsamples = 24\nvalue = [4, 15, 0, 0, 0, 1, 0, 2, 0, 0, 2, 0, 0]\nclass = Browns"] ;
703 -> 713 ;
714 [label="Avg_size_per_room <= 1.067\ngini = 0.415\nsamples = 20\nvalue = [0, 15, 0, 0, 0, 1, 0, 2, 0, 0, 2, 0, 0]\nclass = Browns"] ;
713 -> 714 ;
715 [label="Avg_size_per_room <= -0.212\ngini = 0.215\nsamples = 17\nvalue = [0, 15, 0, 0, 0, 1, 0, 1, 0, 0, 0, 0, 0]\nclass = Browns"] ;
714 -> 715 ;
716 [label="gini = 0.0\nsamples = 1\nvalue = [0, 0, 0, 0, 0, 1, 0, 0, 0, 0, 0, 0, 0]\nclass = Oranges"] ;
715 -> 716 ;
